// Auto-generated policy weights for DE10-Nano
// Generated from Stable Baselines3 PPO Model
#ifndef POLICY_WEIGHTS_H
#define POLICY_WEIGHTS_H

const int NUM_LAYERS = 3;

// Layer 0 (tanh): 16 inputs -> 256 outputs
const int L0_IN = 16;
const int L0_OUT = 256;
const float L0_W[256][16] = {
    {0.17693429f, 0.06190384f, -0.02890097f, 0.08625644f, 0.21228971f, 0.19257514f, -0.06578331f, -0.02021829f, 0.18482076f, 0.25111729f, -0.15087990f, 0.02467060f, 0.29103875f, 0.11974892f, -0.07738461f, 0.01788942f},
    {0.01388706f, 0.04395071f, -0.04166142f, 0.01224107f, 0.02473095f, 0.03844870f, -0.03790520f, -0.03063146f, 0.09915093f, 0.02076481f, 0.01614779f, -0.08942243f, -0.06708530f, -0.01668258f, 0.14148153f, 0.07759789f},
    {0.04581076f, 0.01615497f, -0.10453485f, -0.04447314f, 0.11774516f, -0.06875402f, -0.07277978f, -0.00819183f, 0.00797603f, 0.08322133f, -0.05054684f, 0.37937313f, 0.01941722f, -0.22063604f, -0.12018846f, 0.04733490f},
    {0.03061512f, 0.00556633f, -0.04153990f, 0.16628465f, 0.01985355f, 0.06872155f, -0.01856112f, -0.04610531f, -0.19793777f, 0.07299996f, 0.06594821f, -0.02160144f, 0.01527316f, 0.01362153f, -0.03838908f, 0.16114497f},
    {0.23313123f, 0.08188333f, -0.01294328f, -0.07815107f, 0.31952816f, -0.02072483f, 0.10837546f, 0.05363033f, 0.14469780f, -0.03538392f, -0.05366107f, 0.09705280f, 0.21704490f, 0.14354067f, -0.04852895f, -0.02359711f},
    {0.05256453f, -0.28769305f, -0.13834491f, 0.12442033f, -0.13187833f, -0.05596196f, -0.03553559f, 0.14868563f, -0.07382854f, -0.10231703f, -0.11181303f, 0.14079694f, 0.02618909f, -0.02998614f, 0.06264842f, -0.04494134f},
    {0.07361834f, 0.07400076f, 0.00997338f, 0.02889143f, 0.16080953f, 0.14369422f, 0.04070283f, 0.02358391f, 0.03770077f, -0.11222630f, -0.04107130f, 0.02038602f, 0.03507389f, 0.03923373f, -0.06087081f, 0.08416151f},
    {0.02858320f, 0.14930549f, 0.06509587f, -0.10088388f, -0.08314964f, 0.01176412f, 0.07707570f, 0.09505934f, 0.03471257f, -0.07906090f, -0.10368720f, 0.13913888f, 0.04735878f, 0.05340206f, 0.06738336f, 0.09264711f},
    {-0.11346209f, -0.03789053f, -0.03131434f, -0.07524075f, 0.12958664f, 0.08218942f, -0.17720036f, 0.07005452f, 0.10092643f, 0.11826225f, 0.02247890f, -0.07220471f, -0.02410311f, -0.00662232f, -0.04702153f, 0.09811648f},
    {0.26880711f, -0.00389794f, 0.07146838f, 0.15546313f, 0.17711094f, 0.10220172f, 0.01888510f, -0.07921763f, 0.23291999f, 0.05725220f, -0.07936333f, -0.00351048f, 0.07316147f, 0.07458143f, -0.15100239f, 0.03443090f},
    {0.20565349f, 0.05108859f, -0.07396027f, 0.04059013f, 0.15622354f, 0.03558014f, -0.20860752f, -0.08088626f, -0.08580325f, 0.12172586f, -0.07920848f, 0.01704814f, 0.14553437f, -0.00407197f, -0.01483347f, -0.09608977f},
    {0.14547840f, -0.19879794f, -0.05635775f, -0.15015076f, 0.04112202f, -0.12190685f, -0.03839024f, -0.05247459f, 0.21618453f, -0.07841623f, 0.02997702f, -0.05812855f, -0.09807823f, 0.00824259f, 0.05325786f, 0.04314031f},
    {-0.16434729f, -0.15478317f, -0.03791222f, -0.09423115f, 0.09253743f, -0.01603165f, 0.09465107f, 0.22397730f, 0.08794731f, 0.03621064f, 0.09155913f, 0.01205378f, 0.13203566f, 0.01753666f, -0.17966905f, 0.01353610f},
    {0.06789585f, -0.02203827f, 0.10606181f, 0.19471142f, 0.15117221f, -0.05655330f, 0.06912855f, -0.09056120f, -0.16939764f, 0.07023366f, 0.02847641f, -0.02814667f, -0.03298220f, 0.00258048f, 0.16707161f, 0.04524332f},
    {0.14011768f, 0.13966745f, 0.05597571f, 0.03164204f, 0.08255898f, 0.11281095f, -0.12727067f, -0.06216538f, 0.09470090f, -0.00852586f, 0.11298504f, 0.16340332f, 0.00561987f, 0.13253416f, -0.04025037f, 0.06636177f},
    {0.15346088f, -0.01349572f, -0.05262906f, 0.01262625f, 0.18193339f, 0.06864475f, 0.01531832f, 0.01110311f, 0.09845791f, 0.09507551f, -0.01951611f, -0.03307086f, 0.24635316f, 0.04076444f, 0.04325750f, -0.02057381f},
    {0.13610992f, 0.01857980f, 0.07631428f, -0.11295018f, -0.00997792f, 0.00293953f, 0.05046621f, 0.06185897f, 0.02637938f, -0.06671027f, 0.13475108f, 0.03450220f, 0.01297726f, -0.01109824f, 0.16786161f, 0.03300870f},
    {0.02162465f, 0.02298551f, -0.17397851f, -0.04681543f, 0.03234954f, 0.03144647f, 0.03868818f, 0.14514954f, 0.21134181f, 0.05446764f, 0.16982736f, -0.04317495f, 0.17446850f, -0.08936462f, 0.07395194f, -0.09057728f},
    {-0.18902296f, 0.11436501f, 0.19268368f, 0.06032198f, 0.03322107f, -0.15587391f, 0.14011024f, -0.00893248f, 0.15226622f, -0.20346977f, -0.10340212f, -0.02687712f, -0.01643105f, -0.09499169f, 0.04513002f, 0.12810344f},
    {-0.06057988f, 0.02121706f, 0.08729091f, 0.01651671f, 0.01727781f, -0.03560182f, 0.00167251f, -0.00532836f, -0.09238038f, -0.14409651f, 0.00906194f, -0.10069011f, -0.02642113f, -0.05127355f, -0.05409275f, -0.11810692f},
    {0.12410954f, 0.15474354f, 0.12738788f, 0.10927945f, -0.07761115f, 0.08537465f, 0.01686945f, 0.03997720f, -0.11702096f, -0.16529760f, 0.12275688f, 0.00670201f, -0.08887468f, -0.02090968f, 0.15479328f, -0.03991608f},
    {-0.14502575f, -0.02374799f, -0.21502288f, -0.03865610f, -0.09137096f, -0.00515752f, 0.08622216f, -0.05799928f, 0.01523898f, -0.01657665f, 0.00674843f, 0.01337093f, -0.21755955f, 0.05400193f, 0.02197479f, 0.05212618f},
    {0.01110909f, -0.01781771f, 0.16032663f, -0.04253757f, 0.02420692f, 0.18692695f, -0.02250507f, 0.01562195f, -0.12459793f, -0.03302091f, 0.04480146f, -0.01653636f, -0.03223959f, -0.06439711f, -0.11168210f, -0.04718033f},
    {-0.01309732f, 0.01965985f, 0.19274908f, 0.05607311f, 0.15511192f, 0.10344949f, -0.04934835f, 0.02189905f, 0.00453982f, 0.17223187f, 0.06988980f, -0.01651378f, 0.00652434f, -0.03925923f, 0.08063716f, -0.12852235f},
    {0.05361541f, 0.06631672f, 0.01753625f, 0.06831031f, 0.19838840f, 0.01325953f, 0.02786194f, -0.07312881f, -0.05605404f, -0.16760488f, 0.11264975f, -0.03246563f, -0.09795217f, 0.10995594f, -0.04787107f, 0.02622053f},
    {0.05879405f, 0.02814936f, -0.01104705f, 0.10943378f, -0.03266094f, 0.03648674f, 0.02665623f, -0.00446591f, -0.07738322f, -0.11060597f, 0.04814516f, -0.04723253f, 0.12258241f, 0.05994512f, -0.01338381f, -0.03710204f},
    {-0.01637664f, -0.07107724f, 0.00018687f, -0.06291174f, -0.06404743f, 0.00592220f, -0.09412709f, -0.07402612f, -0.00911821f, -0.03009902f, 0.09956621f, 0.01096688f, 0.04605364f, 0.24700959f, -0.00728634f, 0.03432678f},
    {-0.02878893f, -0.17972857f, 0.05856330f, -0.05593158f, 0.08072454f, 0.02042136f, -0.04881412f, -0.00910818f, 0.10336269f, 0.01415118f, 0.12449458f, -0.02227333f, 0.10695551f, 0.17738672f, -0.01414982f, 0.04072612f},
    {0.13111562f, 0.06851864f, 0.07486797f, 0.08477403f, 0.09441645f, 0.04566683f, -0.11747040f, 0.19671588f, 0.04730390f, 0.22504668f, -0.00999332f, -0.03750429f, 0.19763725f, 0.09323123f, -0.09823819f, -0.10721330f},
    {-0.01378259f, 0.02103918f, -0.17019564f, -0.01370523f, 0.10790110f, -0.00889985f, -0.08273125f, -0.00093482f, 0.01516877f, 0.02892724f, 0.07517491f, -0.22484979f, -0.05909576f, -0.11838479f, 0.06611517f, 0.04728922f},
    {-0.02882248f, -0.02008352f, 0.05832298f, 0.01348045f, 0.04801892f, -0.18998089f, 0.09478965f, -0.13413371f, -0.07057281f, -0.01776621f, 0.12300956f, 0.01884631f, -0.09542849f, -0.01137699f, 0.07174908f, 0.09336166f},
    {-0.09735837f, 0.06359474f, -0.05013262f, -0.06186365f, -0.06225113f, -0.15295935f, 0.02285435f, 0.11969436f, -0.14760189f, 0.05756422f, 0.15592507f, -0.00168946f, -0.14047632f, 0.04111047f, 0.07601259f, 0.02184954f},
    {-0.11143907f, -0.08486963f, 0.10735414f, -0.00753567f, -0.02686964f, -0.08493483f, -0.12482762f, -0.09999479f, -0.04265732f, 0.22774917f, 0.04922590f, 0.05663060f, -0.04642608f, -0.00430114f, 0.08620611f, -0.12624887f},
    {0.01973446f, -0.11669687f, -0.11267237f, -0.03601342f, 0.08374696f, -0.02002158f, -0.04274935f, 0.08419341f, -0.07373140f, -0.03321662f, 0.07176355f, -0.02847290f, -0.21294625f, -0.14604899f, -0.08870167f, 0.03252972f},
    {0.04114342f, -0.08509098f, -0.15176582f, -0.09752812f, -0.04470841f, 0.03115077f, 0.04607056f, -0.04210486f, -0.16310656f, 0.06069672f, 0.15208329f, -0.07305870f, 0.03486160f, 0.03861578f, 0.12768376f, 0.11102490f},
    {-0.04402999f, 0.03958945f, 0.11144619f, -0.04673495f, -0.08934651f, -0.10860487f, -0.06936729f, -0.01216560f, -0.12342671f, -0.19244221f, -0.13039941f, 0.14324374f, -0.06510855f, 0.12584952f, -0.06649594f, -0.04309423f},
    {-0.01805061f, 0.03257642f, 0.17178586f, 0.00861456f, 0.00105184f, -0.02679695f, -0.05100513f, -0.07598683f, -0.07918271f, -0.05424825f, -0.07114555f, 0.03392500f, -0.12390400f, 0.00117784f, 0.04272463f, 0.06614405f},
    {-0.14974415f, 0.08812319f, 0.02505038f, -0.19181047f, -0.06903642f, -0.11127344f, 0.01741530f, 0.02116436f, 0.06372496f, 0.00642261f, 0.11014484f, 0.12066950f, -0.03991555f, -0.06050117f, -0.00265265f, 0.08921855f},
    {-0.06743129f, -0.08675306f, 0.03449845f, -0.01952090f, 0.15206690f, 0.12682855f, 0.09621571f, -0.10010123f, 0.09195708f, -0.01468108f, 0.01500502f, 0.16156758f, 0.04339549f, -0.07727666f, -0.03100179f, 0.10272872f},
    {0.11181661f, 0.07125200f, -0.03692663f, 0.02235911f, -0.01015140f, -0.08139691f, -0.04110632f, 0.04679681f, -0.02931785f, 0.05179821f, 0.02229100f, -0.00611905f, 0.00291922f, 0.03427040f, -0.06920660f, 0.05753410f},
    {0.00526360f, -0.00860979f, -0.16006966f, -0.00007214f, -0.06915904f, -0.02420732f, 0.01587489f, -0.21946628f, -0.00441009f, -0.10260776f, 0.08715420f, 0.13927753f, 0.01122758f, -0.10666943f, -0.03382060f, -0.00181764f},
    {0.01667562f, -0.02547679f, -0.11689410f, -0.00311687f, -0.06347660f, -0.11931792f, 0.06503739f, -0.05358899f, 0.08439910f, 0.14469975f, -0.01613994f, -0.09550650f, -0.07615533f, 0.02919846f, 0.07136337f, 0.02942840f},
    {0.03999336f, 0.03911394f, -0.08421962f, -0.06139383f, -0.11091330f, 0.02920746f, 0.00853259f, -0.07233991f, 0.13225937f, 0.14105357f, -0.11720032f, 0.04626772f, 0.00725134f, -0.03016941f, 0.01837322f, 0.12462395f},
    {0.00149282f, -0.00768841f, -0.08275373f, 0.05615059f, -0.05017126f, -0.10119858f, 0.03973668f, -0.15359960f, -0.04714801f, -0.00247030f, 0.04285232f, 0.01802511f, -0.03959933f, 0.11716162f, -0.11200635f, -0.16485210f},
    {-0.09173132f, 0.03762498f, -0.24498931f, 0.10770203f, -0.30129185f, -0.10928626f, -0.09702929f, -0.01788183f, -0.00963444f, 0.01414224f, 0.08065432f, 0.09358905f, -0.03959407f, 0.16995810f, 0.11676433f, -0.04214783f},
    {0.06320965f, -0.11867867f, -0.01134705f, -0.01630691f, 0.07028893f, -0.08352868f, 0.13102959f, 0.10350534f, 0.15307762f, -0.03769189f, 0.15723991f, -0.05479192f, 0.05645008f, -0.00969691f, 0.01564045f, -0.10760269f},
    {0.04022970f, -0.04785552f, -0.09154627f, -0.01249369f, 0.04779470f, 0.19741635f, 0.03895590f, -0.03610002f, 0.09150749f, -0.23003833f, -0.07380896f, 0.03279414f, 0.12066603f, 0.08748800f, 0.06486069f, -0.26901904f},
    {0.12051717f, 0.07329208f, -0.04022008f, -0.04745056f, 0.04513448f, -0.10282651f, 0.09798099f, 0.07663885f, 0.17415944f, 0.06090779f, -0.01451230f, 0.06129273f, 0.05670365f, -0.07153679f, 0.01749159f, -0.14242063f},
    {0.07211222f, -0.01025582f, -0.04341497f, 0.17822129f, -0.15652037f, -0.12252574f, 0.00538079f, 0.05632720f, 0.11813068f, -0.10776509f, 0.07667859f, 0.09058803f, -0.19119473f, -0.05625329f, -0.02228647f, -0.03942075f},
    {0.04868810f, -0.02183061f, 0.12180696f, -0.25441509f, -0.11996974f, 0.08832330f, -0.05940482f, -0.07030323f, -0.06447751f, 0.05207982f, -0.02148503f, 0.02304993f, -0.04016838f, 0.08688354f, -0.11695565f, -0.17809838f},
    {0.10781333f, 0.08867319f, 0.02800218f, -0.00620857f, -0.05189091f, 0.11217773f, -0.02075195f, 0.02037587f, 0.03052680f, 0.11622713f, 0.01138511f, 0.17913540f, 0.06014525f, -0.02228181f, -0.04354682f, -0.00743508f},
    {0.01015599f, 0.07119423f, 0.14755858f, 0.13115416f, -0.07572585f, 0.11793286f, -0.04771389f, -0.04719374f, 0.06953249f, -0.01068624f, 0.13771896f, 0.15016936f, 0.11961507f, -0.16639307f, -0.05104363f, 0.05109173f},
    {0.10731966f, -0.10943257f, 0.19876127f, -0.08870562f, 0.05862737f, 0.08535322f, -0.08983468f, -0.06419009f, -0.09315371f, -0.08480829f, 0.02241451f, -0.11006977f, 0.01445049f, 0.13590853f, -0.12478393f, -0.09115335f},
    {-0.03735930f, 0.01772786f, 0.05252200f, -0.12041397f, -0.04788687f, -0.15756814f, 0.02593788f, -0.03351846f, -0.10900409f, -0.06455819f, 0.00743287f, -0.02986434f, 0.04476000f, 0.05356878f, -0.00541863f, -0.01104869f},
    {0.09755987f, -0.07384961f, -0.03527416f, -0.03485866f, 0.14246674f, 0.01719135f, -0.16101135f, 0.02867534f, 0.12935713f, 0.02489167f, 0.05185483f, 0.06365816f, -0.07431450f, -0.03500693f, -0.18697265f, -0.06480204f},
    {0.19686989f, -0.09704313f, -0.07063965f, -0.12739031f, 0.24007283f, -0.03561624f, -0.01446008f, -0.04281627f, 0.27911398f, -0.08025976f, 0.08597240f, 0.09390642f, 0.18776739f, 0.05039798f, -0.15856394f, 0.00451901f},
    {0.17455287f, -0.05627489f, 0.02915556f, 0.07318693f, 0.06464350f, -0.00950081f, 0.22782446f, 0.01408642f, -0.11911470f, -0.03341933f, 0.02956503f, 0.16949534f, 0.06044278f, -0.08760667f, 0.09053206f, 0.04717256f},
    {0.01765077f, 0.15788989f, -0.05775134f, 0.01349166f, 0.19751354f, 0.12168813f, 0.00581662f, 0.00336828f, 0.03970786f, 0.13361557f, -0.08442559f, -0.03460474f, 0.10464623f, 0.01059264f, -0.10128845f, -0.09790973f},
    {-0.08043534f, -0.11079090f, -0.15961783f, -0.05575671f, -0.06453411f, -0.05983914f, -0.09258138f, -0.03378844f, -0.03622424f, -0.02495192f, 0.07364782f, 0.21099013f, 0.03746744f, -0.03447000f, -0.01942298f, -0.02928518f},
    {0.00168272f, -0.04567292f, -0.05899172f, 0.04127208f, 0.17387335f, -0.03993681f, -0.12298223f, -0.03232810f, 0.06410520f, 0.07795083f, -0.10768888f, -0.11790783f, 0.04170923f, 0.10447916f, -0.00335808f, 0.13029657f},
    {0.13150682f, -0.02335449f, 0.06289084f, -0.01493757f, -0.20173919f, -0.25090981f, -0.22677608f, -0.01025675f, 0.00335708f, 0.04721036f, 0.13494724f, -0.14712673f, -0.19247949f, 0.00890750f, -0.03576575f, -0.06956895f},
    {-0.04816749f, 0.00671430f, 0.05489479f, 0.01414990f, -0.06531116f, 0.04423000f, -0.10142083f, -0.15547882f, 0.09579193f, -0.03885210f, -0.08982306f, -0.00508204f, 0.09302534f, 0.07809039f, 0.00454503f, 0.18655609f},
    {0.07746891f, 0.08193716f, 0.13376397f, -0.06703483f, 0.16644694f, -0.05912354f, 0.02921869f, -0.09291872f, 0.13029085f, 0.06492720f, -0.02811041f, 0.04561988f, 0.05896993f, -0.10376175f, -0.38785195f, 0.00880579f},
    {-0.19950849f, 0.11902245f, 0.06369032f, -0.04965000f, -0.02948290f, -0.12840648f, 0.04067566f, 0.00874781f, 0.01298278f, -0.09740520f, 0.18662274f, 0.03009954f, -0.09226976f, -0.02754562f, -0.02983904f, -0.02690248f},
    {0.06949218f, 0.06223243f, 0.00294103f, -0.06420459f, -0.13891526f, -0.00294871f, -0.10062392f, -0.11078750f, -0.01808915f, -0.04319562f, 0.05573078f, 0.01521815f, -0.11536985f, -0.08879275f, 0.04273657f, 0.06061951f},
    {-0.03319404f, -0.16515656f, 0.00233930f, -0.04791538f, -0.07443079f, 0.03913530f, -0.14271271f, 0.05092005f, -0.08991417f, 0.02806213f, -0.02401487f, 0.10377149f, 0.05112836f, -0.08826292f, -0.14180040f, -0.06809018f},
    {0.10139456f, -0.00798008f, 0.17869040f, -0.05687187f, -0.06031971f, -0.01107868f, 0.06958640f, 0.02978746f, -0.09142435f, 0.00714421f, -0.12051215f, 0.08249100f, -0.01253491f, -0.17843281f, -0.04578822f, -0.13997310f},
    {0.05499567f, 0.01995523f, 0.00864282f, -0.09704506f, -0.04798322f, 0.06173332f, -0.03984699f, 0.11749136f, 0.02105084f, 0.07673623f, 0.05849055f, 0.09769356f, 0.18232076f, -0.03863113f, -0.02568028f, 0.08975540f},
    {-0.12096994f, -0.02789932f, 0.02817132f, 0.07741109f, 0.02953632f, -0.01970708f, -0.05170695f, -0.03724972f, 0.09457756f, -0.01691988f, -0.18985237f, 0.04195214f, -0.02305715f, -0.10194559f, 0.22925249f, 0.08505736f},
    {0.13206823f, 0.17045818f, 0.01248814f, -0.04500675f, -0.03455260f, 0.24809134f, 0.02283705f, 0.08751922f, 0.20667075f, 0.14571233f, -0.10693926f, 0.01898985f, 0.04520677f, -0.01320411f, 0.02053296f, 0.13358353f},
    {-0.14158817f, -0.10774542f, -0.02500222f, -0.08808970f, 0.01133205f, 0.08248121f, -0.15540652f, -0.06360728f, -0.00769539f, -0.02557410f, -0.05218809f, 0.04530746f, -0.10234584f, -0.06398325f, -0.07174952f, 0.14591956f},
    {0.08291546f, -0.03406358f, -0.03110197f, 0.07783883f, 0.09481462f, 0.18443841f, 0.06687306f, -0.02130615f, 0.00715715f, 0.15474989f, 0.11377650f, 0.09584133f, 0.06090030f, 0.04163520f, -0.01140465f, 0.16202661f},
    {0.07249969f, 0.15045017f, 0.09104821f, -0.05142830f, 0.13987795f, -0.23799805f, -0.10100248f, 0.02427096f, 0.10393880f, -0.12791720f, -0.00902399f, -0.14342865f, 0.21797125f, -0.02058475f, -0.22466366f, 0.08821659f},
    {-0.07165489f, -0.01240467f, -0.09019604f, 0.01717531f, -0.15169312f, 0.13451080f, 0.08342647f, 0.02779158f, -0.13462929f, -0.02050813f, -0.02612207f, -0.09692038f, -0.11833245f, 0.06014585f, 0.01454716f, 0.07669904f},
    {-0.13341530f, 0.06716929f, 0.06832597f, 0.00953327f, 0.11195592f, 0.15479210f, 0.05293614f, -0.04247938f, 0.12354963f, -0.07402902f, 0.03796751f, -0.04776527f, 0.16129737f, 0.13022888f, 0.01932543f, 0.02924946f},
    {0.22002466f, 0.04473417f, -0.01692054f, 0.08094495f, 0.02279037f, 0.13308533f, -0.08035483f, -0.06986963f, 0.13730106f, 0.19768137f, 0.09357735f, 0.12498412f, 0.12993462f, 0.13965465f, -0.10392473f, 0.05176408f},
    {-0.02966040f, -0.08401617f, 0.08258151f, 0.12411052f, -0.13437244f, -0.02677041f, -0.02274006f, -0.04590147f, -0.02848515f, -0.02060952f, -0.09739009f, 0.02874159f, -0.17478314f, 0.00253161f, 0.01579050f, -0.01520085f},
    {-0.15080142f, -0.02132400f, -0.07506996f, 0.18486921f, 0.02569128f, -0.11416124f, -0.14138599f, -0.01829902f, 0.00144454f, -0.02880245f, 0.00762383f, 0.00279243f, -0.04156038f, 0.02009210f, 0.05274820f, -0.05627982f},
    {-0.10074688f, -0.06906274f, 0.04208611f, -0.08007883f, -0.01039364f, -0.03935973f, 0.10375460f, -0.17676318f, 0.07350144f, -0.05882398f, -0.01573738f, 0.07870010f, 0.02721114f, 0.13820702f, 0.06427738f, -0.08045722f},
    {0.22080359f, 0.05998486f, -0.16297968f, -0.02368644f, -0.04235963f, -0.00289514f, 0.07780381f, -0.05455770f, 0.01553397f, 0.03834892f, -0.09088868f, -0.06893641f, 0.26165459f, -0.00090040f, -0.01956089f, 0.11332675f},
    {0.24708574f, 0.24163203f, -0.03563131f, 0.04706287f, -0.07802368f, 0.04090435f, -0.08587905f, -0.04806262f, 0.09830759f, -0.05509533f, -0.00130145f, 0.07376019f, 0.18651071f, 0.22605242f, -0.12492892f, -0.01638748f},
    {-0.10102513f, -0.05493223f, -0.01865980f, -0.02954597f, 0.09623870f, 0.00369637f, -0.04699754f, -0.17380533f, -0.14349099f, 0.01210927f, -0.01227175f, -0.15758015f, -0.03664133f, 0.01285130f, -0.07941997f, 0.09261230f},
    {0.09219778f, -0.08575453f, -0.01121354f, -0.00267969f, -0.02422652f, 0.12273058f, 0.04436467f, -0.03146847f, 0.02001773f, 0.15177669f, -0.02872555f, -0.14094159f, -0.23512450f, 0.02105389f, -0.01722854f, -0.05788985f},
    {-0.07797346f, 0.10407533f, -0.16502328f, 0.02634787f, -0.00996261f, -0.08331892f, 0.02595285f, 0.03181761f, -0.13804069f, 0.04144941f, -0.05149806f, -0.03509590f, 0.16778770f, -0.01516744f, -0.01096096f, -0.11530226f},
    {0.05754152f, 0.12841104f, 0.17309393f, -0.22523181f, 0.01591743f, -0.12433578f, -0.20647778f, -0.07812111f, -0.11038917f, 0.15303035f, 0.23794758f, 0.14805432f, -0.11898512f, 0.06978476f, 0.18249893f, 0.02753852f},
    {-0.18765514f, -0.02707733f, 0.03900676f, 0.08779725f, -0.07692562f, 0.09564973f, -0.06315118f, 0.01522526f, 0.15258931f, 0.14375611f, 0.11901760f, 0.03163420f, 0.04401852f, -0.10657800f, 0.12248074f, -0.03903523f},
    {0.07338966f, 0.07414662f, 0.04523335f, 0.02924320f, -0.00918536f, 0.06988727f, -0.05480867f, -0.14250654f, 0.10290495f, 0.07001204f, 0.03784768f, -0.05890120f, 0.20248860f, -0.03280222f, 0.13369580f, 0.14207655f},
    {-0.04466591f, 0.03028908f, -0.03104067f, -0.05590426f, -0.09032065f, -0.03804622f, -0.01134904f, -0.07165931f, 0.04109418f, -0.06362306f, -0.04179249f, -0.10575845f, -0.10289174f, -0.07306991f, 0.06687263f, 0.10761125f},
    {-0.14746547f, -0.07047703f, -0.00059158f, -0.05742258f, -0.21654551f, -0.01619462f, 0.03279814f, -0.07543419f, -0.08891277f, 0.01396841f, -0.08094176f, 0.15195216f, -0.09387612f, -0.18444145f, -0.30252466f, 0.00637806f},
    {0.07955281f, 0.06856369f, -0.22426023f, 0.05249792f, 0.10850386f, 0.02247991f, -0.25782695f, 0.11003977f, -0.14253500f, -0.12260912f, -0.00788782f, 0.01475271f, -0.02002328f, -0.05470810f, -0.06345158f, 0.08651423f},
    {-0.07463927f, -0.18132274f, -0.00542969f, 0.08006129f, -0.18044844f, 0.06801447f, -0.06975441f, 0.00436355f, -0.14925358f, -0.23888922f, -0.01545636f, -0.12230437f, -0.12350694f, 0.04970297f, 0.12451932f, -0.15019307f},
    {-0.08109198f, -0.06514896f, -0.18364970f, -0.10393025f, -0.10188714f, 0.11419675f, 0.22120574f, 0.05657757f, -0.11579949f, 0.03035600f, -0.07044227f, 0.00550939f, -0.40615457f, 0.06890060f, -0.04334508f, 0.06465579f},
    {0.20373344f, 0.05022432f, -0.06699593f, 0.12852384f, 0.09592739f, -0.13577898f, 0.08506842f, -0.10084782f, 0.19985561f, -0.03279875f, 0.03638335f, 0.08440993f, 0.05668223f, -0.03905129f, -0.16194239f, -0.17410679f},
    {0.08096635f, -0.01627230f, -0.04425626f, -0.03330500f, -0.02886108f, -0.02876875f, 0.05350468f, 0.01828152f, 0.17394550f, 0.03423277f, -0.01752377f, 0.12476101f, 0.14161913f, 0.11220555f, -0.02017564f, 0.04180126f},
    {0.07555959f, -0.06717521f, 0.11256601f, 0.00369741f, 0.02312684f, -0.00925137f, 0.01578699f, 0.07399876f, -0.01575715f, -0.06388848f, -0.15327397f, 0.13182624f, 0.06183356f, 0.03055410f, -0.00747029f, 0.06200494f},
    {0.09796684f, 0.21201733f, 0.12175374f, -0.02803575f, 0.12731099f, 0.01430661f, 0.00341230f, -0.03302696f, 0.06635380f, 0.13301703f, -0.06583738f, -0.03648528f, -0.15808298f, -0.03794546f, 0.09267846f, 0.03250990f},
    {0.02050181f, 0.08668455f, -0.11399664f, -0.05652922f, 0.17500027f, 0.03484432f, 0.03401053f, 0.01785607f, -0.00992781f, 0.00730735f, -0.11386078f, 0.12512314f, 0.07893886f, 0.11024599f, 0.20881225f, -0.10941479f},
    {0.01613482f, 0.15497884f, -0.08203936f, -0.07498515f, 0.15999906f, 0.15912168f, 0.16545102f, 0.02793067f, 0.10180861f, 0.11373274f, 0.01496795f, 0.01767977f, 0.08300073f, 0.20372209f, 0.04685694f, -0.00679426f},
    {-0.02928859f, 0.05416416f, 0.02046612f, 0.04640063f, -0.05226522f, -0.04851612f, 0.04795309f, 0.08700424f, -0.09656323f, 0.04943632f, -0.08328627f, -0.07582575f, -0.05632484f, -0.04404497f, -0.05081601f, -0.01748918f},
    {-0.17724618f, 0.08268044f, 0.01089145f, 0.05986310f, -0.13963573f, 0.02426491f, -0.06767979f, 0.03606283f, -0.08611098f, -0.11132386f, 0.08499728f, -0.06428093f, 0.02961244f, -0.00479700f, -0.04292689f, -0.01947255f},
    {-0.08335559f, -0.09401095f, 0.04095937f, 0.08391935f, -0.11387438f, 0.17535762f, -0.14971066f, -0.00490729f, -0.07488416f, 0.11111024f, -0.03932012f, -0.06591790f, 0.02655317f, 0.00603093f, -0.06840946f, -0.02832139f},
    {0.21362187f, -0.07305388f, -0.00571189f, -0.02749995f, -0.06995220f, 0.06534459f, -0.07122353f, 0.05477729f, 0.09929496f, -0.07593451f, 0.10370359f, 0.01831982f, -0.13865636f, 0.15422538f, 0.06484421f, 0.02052856f},
    {-0.13535829f, -0.11686508f, -0.00328482f, 0.16590661f, -0.15747434f, 0.01884877f, 0.07639123f, -0.01452147f, -0.10320565f, 0.04917870f, 0.06736754f, 0.03208472f, -0.35243517f, -0.01556723f, -0.00720318f, -0.14428642f},
    {0.07650302f, 0.08264804f, 0.00820642f, 0.07179278f, -0.11358768f, -0.01054251f, 0.07185642f, 0.09217272f, 0.10239760f, 0.11572867f, 0.04110438f, -0.00143937f, 0.12356292f, 0.09019089f, -0.17585374f, -0.03915313f},
    {-0.12103884f, -0.07766578f, 0.10635906f, -0.06729339f, -0.04411008f, -0.06125557f, 0.01501446f, -0.02185052f, 0.05131114f, 0.06054745f, -0.01377926f, -0.03509871f, 0.10188266f, -0.01124155f, 0.18248694f, 0.01941686f},
    {0.03542509f, 0.01163175f, 0.16733213f, 0.17208107f, 0.01526156f, 0.08455379f, 0.07654292f, -0.25011665f, 0.01067478f, -0.02080857f, -0.08703282f, 0.06263231f, -0.02620121f, 0.08718965f, 0.00814132f, 0.11285458f},
    {-0.17048755f, -0.01641735f, 0.15279599f, -0.06371745f, -0.31636947f, -0.06420495f, -0.12016043f, 0.08775011f, -0.05381592f, 0.01492287f, 0.07081045f, -0.02977861f, -0.03007894f, 0.10136006f, -0.06890883f, 0.03467847f},
    {-0.03273090f, -0.02429645f, -0.12502716f, -0.00277413f, -0.11187553f, 0.13712820f, 0.16646773f, -0.06628171f, -0.02882053f, 0.06604990f, -0.00410730f, 0.00977064f, -0.07940236f, 0.02217198f, -0.07407449f, -0.13830891f},
    {-0.07525285f, 0.04026143f, -0.03954835f, -0.05536116f, -0.07689445f, -0.08494691f, -0.09385718f, 0.08081647f, -0.04605773f, -0.00251401f, 0.07495406f, -0.11649209f, -0.07332567f, 0.05309889f, 0.07817579f, 0.02384599f},
    {-0.02558187f, 0.06305535f, 0.02653596f, 0.04411386f, -0.16885835f, 0.07418248f, -0.13248721f, 0.07570481f, 0.05642649f, -0.01445837f, -0.05362352f, -0.09675646f, -0.11950749f, 0.05751884f, -0.01314500f, -0.00652995f},
    {0.01836466f, -0.02076145f, 0.03402887f, 0.11882373f, 0.17536843f, -0.02629453f, 0.07263581f, -0.15094921f, 0.07103748f, 0.04860275f, -0.05223245f, 0.01363323f, 0.08278423f, -0.09941884f, -0.06643204f, 0.02182510f},
    {-0.07237241f, -0.09273093f, 0.10696466f, -0.02402377f, 0.09558699f, -0.11244243f, -0.07132349f, 0.06538545f, -0.03798372f, 0.12222529f, -0.06486268f, -0.03414588f, -0.19232306f, 0.07691836f, -0.06445921f, 0.01770828f},
    {-0.09213484f, -0.10620138f, -0.07761165f, -0.00649505f, -0.05232885f, -0.12789546f, -0.09235835f, -0.00922044f, -0.08006828f, -0.07361057f, 0.07003065f, 0.18351126f, -0.04216274f, 0.08321677f, 0.07625944f, -0.07197615f},
    {0.02722951f, -0.04213468f, -0.08834149f, -0.05474003f, -0.06603243f, 0.08884685f, -0.08536404f, -0.06156458f, -0.07029674f, 0.04669840f, -0.06882385f, -0.08338879f, -0.05106885f, -0.22076364f, 0.03562728f, -0.09895182f},
    {0.08832211f, -0.04445733f, 0.00903316f, 0.07522155f, 0.02586513f, 0.08152653f, -0.06269761f, -0.03266391f, 0.18886015f, 0.01384846f, 0.07271767f, 0.02254152f, 0.07886307f, 0.03745582f, -0.17878076f, 0.04389594f},
    {0.22904891f, -0.04699956f, -0.09973275f, -0.08317563f, 0.07702108f, -0.10976751f, 0.05451579f, 0.15057682f, -0.06080269f, -0.01922747f, -0.00323505f, -0.02512972f, 0.11638497f, -0.24899270f, 0.21312737f, -0.05436861f},
    {0.05093133f, 0.00453263f, 0.06990894f, -0.00462379f, 0.27070028f, 0.08614206f, -0.15572757f, 0.08563084f, 0.15468301f, 0.14475068f, 0.01419178f, 0.15011926f, 0.06486381f, 0.00508458f, 0.02385406f, -0.04898345f},
    {-0.05384409f, -0.02795828f, -0.01445872f, 0.07275941f, -0.11019819f, 0.01977172f, -0.06248292f, 0.11223034f, -0.02413146f, 0.17913373f, 0.09162946f, 0.08525787f, 0.15019010f, 0.08518767f, 0.11366963f, 0.12728260f},
    {-0.15368684f, -0.00826569f, -0.12354875f, 0.01957684f, 0.07087818f, 0.10992914f, -0.08127217f, 0.07000215f, -0.05823269f, -0.02409381f, 0.04504243f, -0.05607482f, -0.05172201f, 0.04219176f, 0.18586735f, 0.05208345f},
    {0.15628700f, 0.07488410f, 0.06584651f, -0.01852751f, -0.02374889f, -0.02581666f, -0.14474890f, 0.00880341f, 0.17275643f, -0.01535656f, -0.07250947f, -0.07341430f, -0.05889385f, 0.10743384f, -0.05000499f, 0.06703404f},
    {-0.05127514f, 0.09674788f, 0.06202557f, -0.01148835f, 0.08785745f, -0.00383646f, -0.05445006f, 0.02197989f, 0.02040674f, -0.10714790f, -0.00422159f, -0.11090932f, -0.03428688f, -0.02109032f, -0.00396362f, 0.05820361f},
    {-0.08396509f, -0.11506362f, 0.11011831f, 0.06137775f, -0.12042812f, -0.07512096f, 0.00956423f, 0.04881404f, -0.32390469f, -0.06279401f, 0.08606083f, -0.02319116f, -0.22452250f, -0.09603170f, -0.12028975f, -0.05364519f},
    {-0.25552103f, -0.17471197f, 0.05804166f, -0.11140366f, 0.12264360f, -0.05965587f, -0.05782028f, -0.12206446f, -0.07733183f, -0.08287384f, 0.12522365f, 0.02824454f, 0.00569444f, -0.15209459f, 0.10829832f, 0.06838749f},
    {0.22545312f, 0.12248531f, -0.01350150f, -0.05137810f, 0.21723281f, -0.02502113f, 0.10644621f, -0.02680618f, 0.14810278f, 0.04598378f, 0.07378714f, 0.03247242f, 0.21790160f, 0.01905128f, -0.09806439f, 0.12384719f},
    {0.10597502f, 0.06949575f, -0.01349508f, 0.04989056f, 0.04318751f, -0.07521544f, 0.03924362f, 0.03703755f, 0.08317115f, -0.13091396f, -0.07319920f, -0.00736250f, -0.03906128f, -0.02393040f, 0.02689803f, 0.17782007f},
    {0.14212079f, 0.08534563f, 0.06038224f, 0.08197280f, -0.04182683f, -0.04561967f, 0.07910128f, 0.03554348f, 0.09833796f, -0.06688754f, -0.16040494f, -0.01673999f, 0.01527941f, 0.06212257f, 0.03256587f, -0.04163808f},
    {-0.06789837f, 0.01473955f, -0.05285649f, -0.07900009f, -0.02741849f, -0.05582426f, 0.03116797f, -0.02270054f, -0.00120550f, -0.09536584f, 0.00173273f, -0.12944384f, -0.08131767f, 0.01499778f, 0.02049555f, 0.11466362f},
    {0.12338344f, -0.02572835f, -0.02878226f, -0.00179821f, 0.07244610f, 0.14180548f, -0.00921111f, -0.20791937f, -0.00945733f, -0.12914844f, -0.00705476f, -0.02940686f, -0.00473355f, 0.04038004f, -0.24358675f, 0.14276695f},
    {0.12035678f, 0.11833308f, 0.02112251f, 0.17486365f, 0.22882493f, -0.05661485f, 0.03336357f, 0.08207243f, 0.05152214f, 0.10798533f, -0.07703809f, -0.11076246f, 0.07170491f, 0.04198407f, -0.16284609f, -0.02586238f},
    {-0.01374728f, -0.14023858f, -0.11902956f, 0.11713323f, 0.19554722f, -0.05874983f, 0.04943563f, -0.01017283f, 0.12293797f, 0.05703959f, 0.06889401f, 0.08163267f, 0.02302412f, -0.00979514f, 0.09687864f, -0.03774996f},
    {-0.06609040f, 0.02759348f, 0.06947855f, -0.00742818f, 0.07544324f, 0.06164582f, -0.03789466f, -0.08254918f, 0.09199876f, 0.05590964f, 0.16218151f, 0.01398247f, 0.19728175f, 0.10073601f, -0.13092752f, -0.00561687f},
    {0.09825949f, 0.00356990f, 0.02913429f, 0.05580404f, -0.01642800f, 0.08505215f, -0.04048244f, 0.00492230f, -0.03358958f, -0.05189573f, 0.00246690f, 0.12928271f, 0.01738965f, 0.18616049f, 0.00376534f, -0.00568178f},
    {-0.06225719f, 0.09281218f, -0.02829705f, 0.12812901f, -0.01897248f, -0.20580606f, 0.08970501f, -0.03204034f, -0.09074775f, 0.12423438f, -0.01708034f, 0.00840520f, 0.12361491f, 0.11192575f, -0.09153058f, 0.17825153f},
    {-0.08888126f, -0.11038591f, -0.05357022f, 0.06356912f, -0.02428125f, -0.04342765f, 0.07231948f, -0.06882869f, -0.11279766f, 0.02196805f, -0.05559264f, -0.01104888f, 0.05431345f, 0.15472680f, -0.07838436f, 0.04571823f},
    {0.13179000f, 0.04181384f, 0.10983747f, -0.03729507f, -0.02153676f, -0.00194988f, -0.05982125f, 0.08550407f, 0.13109986f, -0.03521261f, 0.06724156f, 0.03271663f, 0.16229449f, -0.18388291f, 0.03238459f, 0.33482158f},
    {0.15532075f, -0.05815012f, 0.18921769f, 0.12920482f, 0.01048485f, -0.01365131f, 0.05929411f, -0.12637605f, 0.11300401f, 0.12383590f, 0.16177972f, -0.18160500f, 0.03445997f, 0.02241012f, -0.02403424f, -0.01122918f},
    {-0.04356124f, 0.03314947f, -0.17604905f, 0.01428392f, 0.09304227f, -0.08228938f, -0.02727485f, 0.05765754f, 0.22691639f, -0.03356422f, -0.20728704f, 0.05339956f, -0.11336225f, -0.01309344f, 0.04157273f, -0.11354975f},
    {-0.07189843f, 0.02445543f, 0.03387041f, 0.18061657f, -0.03870782f, 0.11425576f, 0.19971377f, -0.01029269f, -0.05018423f, 0.00977742f, 0.13095333f, 0.00118853f, -0.11667597f, 0.10080357f, 0.10749818f, -0.04529209f},
    {0.02070219f, 0.05452663f, 0.04893469f, 0.09809620f, 0.18495235f, -0.10163484f, -0.14149800f, -0.02904503f, 0.05636648f, 0.02275835f, 0.05953386f, 0.03507378f, -0.14065774f, 0.15691480f, 0.01003622f, -0.05030783f},
    {0.11516007f, 0.10193941f, -0.03035836f, -0.02360095f, 0.09023709f, 0.12912062f, -0.04480325f, 0.03738724f, 0.05921456f, -0.01861022f, 0.05934655f, -0.01644727f, 0.13972600f, -0.05397639f, -0.22886409f, -0.09382285f},
    {0.09029983f, 0.07617702f, 0.00467679f, 0.06937309f, 0.09510621f, -0.18317236f, 0.01062345f, -0.06966574f, 0.03806014f, 0.00079285f, 0.02571820f, 0.05064982f, 0.21824805f, 0.03000869f, 0.20471624f, -0.06335314f},
    {-0.23856792f, -0.06561483f, -0.04960955f, 0.00569143f, 0.00894318f, 0.02548282f, -0.03032458f, -0.13407098f, -0.19736083f, -0.04388521f, 0.07005194f, -0.05513300f, -0.09530026f, -0.03209342f, 0.00863255f, 0.01209663f},
    {-0.14543357f, -0.10426121f, 0.00131324f, 0.02178757f, -0.19052623f, 0.03088085f, 0.14633347f, 0.06330715f, -0.07590161f, 0.04270975f, -0.00579773f, -0.06301938f, 0.01810427f, 0.07566026f, -0.03777770f, 0.01225984f},
    {-0.05169527f, -0.08937953f, 0.05058221f, 0.05134458f, -0.07019150f, 0.01850931f, -0.02424186f, -0.10694307f, -0.11523078f, 0.03794959f, 0.02880747f, -0.07616524f, 0.00956327f, -0.08757132f, 0.06779753f, -0.01218757f},
    {0.01758400f, 0.04060247f, -0.03075019f, 0.06449742f, 0.07938249f, -0.13739258f, -0.00065222f, 0.15694624f, 0.34636021f, 0.13784775f, -0.02901929f, -0.06828589f, -0.00273817f, 0.08553591f, -0.13010336f, -0.07211180f},
    {0.05889637f, 0.05641655f, -0.08657379f, -0.03639737f, 0.12971471f, 0.11852288f, 0.08338975f, 0.01721113f, -0.05015688f, 0.04130663f, -0.04674027f, 0.19238399f, -0.03260161f, 0.00435263f, -0.04548579f, 0.08689115f},
    {0.05579584f, -0.17625701f, 0.00691180f, -0.00342418f, -0.04058084f, 0.15667158f, 0.04992843f, 0.17332292f, 0.05642215f, -0.08054448f, -0.01752336f, -0.01896096f, 0.01122861f, -0.00584745f, -0.05823814f, 0.12436410f},
    {0.08816317f, 0.07350618f, 0.04463148f, 0.00780173f, 0.09979191f, 0.12192515f, -0.12484341f, 0.08383069f, 0.23716120f, 0.06042724f, 0.12635423f, 0.05581385f, 0.00081721f, -0.06997612f, 0.07906444f, 0.09588879f},
    {-0.05189434f, -0.04213808f, 0.08495323f, -0.00396321f, -0.12686808f, -0.07407756f, -0.01522365f, 0.10560671f, -0.10746939f, -0.09882510f, -0.03843746f, 0.01035375f, -0.02563718f, 0.05077759f, -0.01723305f, 0.00926368f},
    {-0.10612439f, -0.17618480f, -0.01181360f, 0.04076719f, -0.07792820f, -0.11660425f, 0.04545927f, -0.02567593f, 0.00640510f, -0.13776402f, -0.04923196f, -0.11728407f, -0.09466901f, -0.09943203f, 0.09535757f, -0.11437136f},
    {0.03505456f, -0.02548907f, 0.19550203f, 0.03662566f, 0.02923684f, -0.00042606f, 0.08508788f, -0.15701899f, 0.08438178f, -0.03681242f, -0.04365205f, -0.00012786f, 0.23606566f, 0.14046974f, -0.00469680f, 0.05623542f},
    {0.19620340f, -0.15595694f, 0.04606696f, -0.04578292f, 0.12605046f, 0.01544399f, -0.01398261f, -0.08437704f, 0.24668586f, -0.10533786f, -0.00204376f, 0.05895511f, 0.19385800f, -0.03107769f, 0.14095961f, 0.07297011f},
    {0.06147366f, 0.09277152f, 0.00745260f, -0.01670036f, 0.09419998f, -0.05142295f, -0.01233168f, -0.01127161f, -0.11198498f, -0.00275827f, 0.04482232f, 0.06775007f, 0.07664001f, -0.07874989f, -0.04091039f, -0.09129101f},
    {0.04774133f, -0.08438605f, 0.06657532f, -0.09744504f, -0.15194845f, -0.00401084f, -0.00903375f, -0.03858399f, -0.03338424f, -0.04205135f, 0.06291246f, 0.07321079f, -0.10213992f, 0.00044335f, 0.00621803f, -0.13791715f},
    {-0.06192799f, 0.04667659f, -0.03400801f, 0.03240362f, -0.05609399f, -0.04512126f, -0.08387722f, 0.04765842f, -0.01402930f, -0.15708910f, -0.08736016f, -0.02577860f, -0.06019788f, -0.23449887f, -0.08787522f, -0.00381642f},
    {-0.05075223f, -0.05143180f, 0.09356353f, -0.07505959f, 0.21768980f, 0.10189408f, -0.11149416f, 0.18439136f, 0.08668330f, -0.09165590f, -0.02523883f, 0.01027764f, 0.06972333f, 0.03219130f, -0.02787400f, -0.00929164f},
    {0.23324911f, 0.07644816f, -0.02075648f, 0.16518696f, 0.24690135f, 0.03200242f, 0.06314298f, -0.03041245f, 0.19081490f, -0.01735171f, 0.04855735f, -0.07118173f, 0.25015199f, 0.06471968f, 0.01310945f, -0.10824719f},
    {-0.20943570f, -0.13423683f, -0.04740344f, -0.12881009f, -0.16813256f, -0.08647969f, -0.01889719f, 0.22702903f, -0.18148758f, -0.10426871f, 0.01580908f, -0.07673503f, 0.02065891f, 0.04240501f, 0.00917878f, -0.03124066f},
    {-0.30114928f, 0.09243515f, 0.16491146f, 0.03146914f, -0.07464779f, -0.04395086f, -0.07364894f, 0.02822295f, -0.26013437f, -0.03614867f, 0.01595721f, 0.00892095f, -0.01652203f, -0.04262618f, -0.15364325f, -0.04443590f},
    {-0.01645711f, 0.14673567f, 0.03057978f, -0.07147503f, -0.05813585f, -0.00596530f, -0.27167517f, -0.03795812f, 0.22241257f, 0.01040177f, -0.13805388f, -0.02368412f, 0.04103842f, -0.01494300f, -0.06191596f, 0.00677933f},
    {0.17689608f, 0.07819157f, 0.14689392f, 0.01011332f, -0.02144712f, 0.05526742f, 0.03446376f, 0.03625823f, 0.19304836f, -0.08381324f, 0.04257930f, 0.04706225f, 0.06771015f, -0.09551775f, -0.16360778f, 0.08838166f},
    {-0.02965987f, 0.14497839f, -0.07073897f, -0.12604858f, 0.09203916f, 0.01528681f, -0.09131062f, 0.07139469f, 0.06606547f, -0.06850538f, -0.06221686f, -0.01217353f, 0.06676103f, 0.20769091f, -0.02053406f, 0.05276279f},
    {0.04082734f, 0.25937974f, -0.01441994f, 0.04848794f, -0.01174749f, 0.13774687f, -0.20342152f, 0.04392771f, 0.08299273f, 0.10148207f, -0.21449523f, 0.03084134f, 0.05937734f, 0.15089490f, -0.01100079f, -0.02914704f},
    {0.26177666f, -0.04986174f, -0.11018991f, -0.05856274f, 0.26553264f, 0.07336409f, 0.05229029f, 0.00877511f, 0.25282994f, -0.14780904f, 0.03731871f, 0.02055388f, 0.19913098f, 0.11534519f, 0.00274076f, -0.00913001f},
    {-0.00998715f, -0.03287213f, 0.05672867f, -0.07317569f, 0.07900784f, -0.06578770f, 0.01723859f, 0.02647522f, 0.01378134f, -0.11607828f, -0.02884017f, -0.07493194f, -0.22982207f, 0.03281251f, 0.10578202f, -0.08898443f},
    {0.10348216f, 0.12845674f, -0.02721812f, -0.03242997f, -0.04625846f, 0.11403205f, 0.03903586f, 0.13173379f, -0.00586544f, -0.02858974f, 0.01078490f, 0.12264184f, -0.01280516f, 0.08987008f, 0.01386885f, -0.08648193f},
    {0.06678236f, 0.14343099f, 0.01719336f, -0.18092161f, 0.08003274f, 0.16735068f, 0.09535756f, -0.00501863f, 0.04485563f, -0.01838117f, 0.03221398f, -0.06222405f, 0.01956568f, 0.17521442f, -0.07597093f, 0.11416808f},
    {0.13233045f, -0.03665603f, 0.00152556f, -0.02276687f, 0.04944940f, -0.03072557f, -0.16726105f, -0.00965799f, -0.08480585f, -0.05538183f, 0.07724499f, 0.15737970f, 0.17308129f, 0.09124901f, 0.05037247f, 0.02859428f},
    {0.07706012f, -0.05436799f, 0.00815506f, 0.01080747f, 0.08674514f, -0.05990562f, -0.14525354f, -0.01823410f, -0.02153615f, -0.25239700f, -0.23315293f, 0.07873754f, 0.03416063f, 0.03380103f, 0.04907044f, -0.05823764f},
    {-0.01176072f, -0.10103011f, -0.01679431f, 0.07118030f, -0.02547888f, -0.11503111f, 0.07096480f, -0.03720327f, -0.04137401f, 0.03433508f, -0.18860763f, -0.02222900f, 0.04180527f, 0.06792103f, 0.09531837f, -0.19809689f},
    {-0.00380477f, -0.01525421f, -0.09391744f, 0.12495459f, -0.02359990f, 0.03504058f, -0.04248711f, -0.09148312f, -0.13131496f, -0.11043800f, 0.15179643f, -0.05599793f, -0.10605942f, 0.15776388f, 0.01850223f, -0.02020005f},
    {-0.02442465f, -0.12719272f, -0.06004114f, -0.08405714f, -0.08279634f, -0.17227155f, 0.02206568f, 0.01296661f, -0.09517450f, 0.06687637f, -0.10974958f, -0.02130700f, -0.00105812f, 0.01128664f, -0.07943409f, 0.14254420f},
    {0.06071326f, -0.14629263f, 0.09682038f, 0.02347016f, -0.01974401f, -0.02437118f, -0.11080897f, -0.02017894f, 0.09549012f, 0.01477164f, -0.18011409f, -0.02830980f, 0.03246263f, 0.06702547f, -0.06980923f, 0.18238723f},
    {-0.22703713f, -0.06821659f, -0.00748409f, -0.00093010f, -0.08626276f, 0.11674315f, -0.12501749f, 0.00796665f, -0.23463191f, 0.00439528f, -0.00784308f, 0.06725055f, -0.09618886f, -0.07849317f, 0.05600922f, -0.06798854f},
    {0.03144216f, 0.19022346f, -0.04661458f, 0.12122650f, 0.06038684f, -0.00610413f, 0.11595115f, -0.12013397f, 0.22146232f, 0.05391057f, -0.01834278f, 0.03273857f, -0.07171375f, 0.00322694f, 0.05763795f, -0.07292606f},
    {0.03867201f, -0.05547674f, 0.02807877f, -0.14857629f, -0.02495470f, 0.10736599f, -0.06210153f, 0.03505380f, -0.03593783f, -0.18318358f, 0.04272089f, -0.13068989f, 0.12155131f, -0.09705139f, -0.01567539f, 0.05208356f},
    {-0.17799133f, -0.01611304f, 0.03376010f, 0.10067722f, -0.14889121f, -0.01078397f, 0.11884307f, 0.01918729f, -0.03747369f, -0.04118638f, 0.01405105f, -0.05313900f, -0.14553584f, -0.01435485f, 0.04389019f, 0.03102895f},
    {-0.03074821f, -0.15273987f, 0.06198198f, 0.09134603f, -0.08117124f, -0.04098323f, -0.02194444f, 0.02859422f, -0.02243768f, 0.04712993f, 0.30085239f, 0.07901386f, -0.11458978f, 0.01808373f, 0.10402868f, -0.07910687f},
    {-0.09921527f, -0.26679936f, -0.00310693f, -0.00572673f, 0.08096991f, -0.01722460f, 0.07861922f, -0.10002959f, -0.10277794f, -0.11612940f, 0.14448871f, 0.02545239f, -0.08028579f, -0.05381081f, 0.04084313f, -0.02378630f},
    {-0.22878915f, 0.02057795f, 0.03023094f, 0.00877833f, -0.07766711f, -0.02109920f, -0.09585857f, -0.14754063f, -0.10423811f, -0.09372866f, -0.10401541f, 0.03211009f, -0.16173489f, 0.00646966f, 0.05694915f, 0.14179458f},
    {-0.02450062f, -0.16226122f, 0.02002487f, 0.07676996f, -0.16815752f, 0.04916125f, 0.10244729f, 0.07951020f, -0.18969141f, 0.05099463f, 0.07483437f, -0.07696185f, -0.18182704f, 0.04315208f, 0.04022318f, 0.00670356f},
    {0.15990432f, 0.05208646f, -0.07815206f, 0.03965583f, -0.02118847f, -0.11643706f, -0.10883443f, 0.02022423f, -0.06355634f, 0.10937508f, 0.07442661f, 0.04197367f, -0.06857114f, 0.13510916f, -0.12436559f, 0.13343561f},
    {0.10541533f, -0.05748712f, 0.10603782f, -0.12282807f, -0.20434791f, -0.02574001f, 0.00111851f, -0.01542162f, -0.21816212f, 0.06634976f, -0.11780540f, 0.03712979f, -0.09130909f, 0.06861869f, 0.09192611f, 0.10074766f},
    {0.07306607f, -0.06865598f, -0.05942109f, -0.06207268f, 0.00342563f, -0.03183379f, -0.15821125f, 0.03648425f, 0.03084782f, -0.00378149f, -0.20792700f, -0.04522524f, -0.03817991f, 0.04122398f, 0.01466785f, -0.04969656f},
    {0.25373721f, -0.00863438f, -0.04753851f, -0.06607010f, 0.13106850f, 0.09616270f, 0.02178865f, -0.06159930f, 0.12696099f, -0.12648791f, 0.04119568f, 0.03109470f, 0.06947729f, 0.06104975f, -0.13387056f, 0.02245978f},
    {0.02763461f, -0.03522811f, -0.10324018f, -0.03210782f, -0.00500656f, -0.05335617f, 0.02298916f, -0.01330337f, -0.07847779f, -0.03988813f, -0.01590934f, 0.02089930f, 0.07217533f, 0.08638820f, 0.19021922f, -0.11644068f},
    {0.05761346f, 0.06002143f, -0.03345389f, -0.13721672f, 0.13987796f, -0.15557958f, -0.05479542f, 0.06817596f, -0.02364048f, -0.07815176f, -0.15074636f, -0.00308147f, -0.03605051f, 0.01123833f, -0.08197429f, 0.12556913f},
    {-0.04636597f, 0.03007106f, -0.00585078f, -0.01726645f, 0.15447871f, 0.11476704f, 0.06512207f, 0.07412985f, 0.11219948f, 0.14828356f, 0.13367541f, 0.01428595f, 0.06588349f, -0.05996734f, -0.14869711f, 0.10118845f},
    {-0.07660708f, 0.04326248f, -0.10459857f, 0.02405690f, 0.03636448f, 0.04346988f, -0.10692018f, 0.08497346f, 0.06062394f, -0.07120763f, -0.15146527f, -0.05204626f, -0.10586330f, -0.02217907f, -0.17787804f, -0.06998787f},
    {-0.11030719f, -0.03240818f, -0.07576919f, 0.12237494f, -0.02423250f, 0.09120740f, 0.06969244f, -0.12240811f, 0.08769316f, -0.12664485f, -0.04942698f, 0.11623500f, -0.04997566f, 0.06895531f, -0.00247032f, -0.22737968f},
    {-0.10606331f, -0.03115843f, 0.10783298f, -0.02541311f, -0.03336552f, -0.06037357f, 0.01977904f, 0.02564935f, 0.07377167f, 0.04565756f, -0.02913024f, 0.12913360f, -0.07138249f, 0.09778539f, -0.04578047f, 0.09862480f},
    {-0.13845661f, 0.03973479f, 0.04444952f, -0.09762742f, -0.04499990f, 0.12064248f, -0.05705570f, -0.03832730f, 0.01903530f, -0.00104641f, -0.10810922f, 0.05632482f, -0.05000930f, -0.00623611f, 0.13715455f, -0.14433670f},
    {-0.04393760f, 0.18778187f, -0.14132881f, 0.15862758f, -0.03489499f, 0.04236192f, -0.08718346f, 0.20032167f, -0.02909122f, -0.11872333f, -0.02519119f, -0.20626773f, -0.10150592f, -0.07528792f, -0.01193231f, -0.07723263f},
    {0.12455574f, 0.11460578f, -0.05334985f, -0.21845955f, 0.08569624f, 0.00047700f, 0.05385728f, -0.12878639f, 0.11001027f, 0.04060593f, 0.13422512f, -0.03018479f, 0.04776702f, -0.01573629f, -0.04919260f, 0.05501626f},
    {0.08564944f, -0.01887893f, 0.19206513f, 0.05752222f, -0.07122373f, 0.10033400f, 0.09100785f, -0.04947276f, 0.22451921f, 0.24782878f, -0.11821312f, -0.08260889f, 0.05775853f, -0.00506334f, -0.03282706f, -0.02392706f},
    {0.05125610f, -0.08179683f, -0.07519669f, -0.06995182f, 0.26547411f, 0.01797959f, -0.10296676f, -0.07253579f, -0.00453781f, 0.01570159f, -0.18102188f, -0.00608038f, 0.03587067f, 0.02011804f, -0.10834276f, 0.02050545f},
    {0.01647690f, 0.21737541f, 0.00028200f, -0.06263719f, 0.13618961f, -0.04125039f, 0.02905069f, -0.04599769f, -0.12061453f, 0.03905999f, -0.01387797f, 0.05990960f, 0.00067905f, 0.10330434f, 0.12607954f, -0.18221416f},
    {-0.04773152f, -0.08682185f, -0.04049441f, 0.03894248f, -0.09559930f, -0.12480825f, -0.15369104f, 0.00498330f, -0.09300023f, -0.06883476f, -0.18808110f, -0.05757475f, -0.09537999f, -0.12959069f, 0.07401969f, 0.02206280f},
    {0.07312835f, 0.00143697f, 0.04262760f, 0.12715955f, -0.00300242f, -0.10395095f, 0.03473133f, 0.05252044f, -0.07270014f, 0.13129531f, 0.00590212f, -0.05191273f, -0.09811509f, 0.08673067f, -0.01157841f, -0.06130520f},
    {-0.13773224f, 0.05002276f, -0.21254903f, 0.00388222f, 0.04139702f, -0.10441674f, -0.04211146f, -0.06257614f, -0.05496303f, 0.02813785f, -0.08614466f, 0.01210760f, -0.02317447f, -0.15998821f, -0.13305023f, 0.05321020f},
    {-0.19399995f, -0.01889408f, -0.01325781f, -0.09206609f, -0.00232495f, 0.17273484f, -0.01594655f, 0.16403000f, -0.09053610f, -0.13049671f, 0.13896120f, 0.02482302f, -0.21871689f, 0.03456724f, 0.09603134f, -0.01391344f},
    {-0.07341050f, 0.16920790f, 0.03302223f, 0.04376388f, 0.06510938f, 0.00658353f, -0.09542116f, -0.07353970f, -0.03966848f, -0.03697291f, 0.02047709f, -0.11283290f, 0.02866222f, 0.12279178f, 0.00650181f, -0.01405866f},
    {0.11273717f, 0.17507204f, -0.06366888f, 0.06784779f, 0.11958494f, -0.02492109f, -0.01926758f, 0.09101463f, 0.19317068f, 0.18905358f, 0.03087833f, 0.04123802f, 0.07898676f, 0.08680308f, -0.00286560f, -0.01990529f},
    {-0.02722972f, -0.08525516f, -0.07158945f, -0.15693559f, -0.18924686f, 0.01626244f, 0.01104353f, 0.05632757f, -0.16241619f, 0.05207676f, -0.07658364f, 0.04386312f, -0.08421556f, -0.14024273f, -0.01648019f, 0.09821909f},
    {-0.15470488f, -0.00387808f, 0.06345694f, 0.03684778f, -0.02614552f, -0.05332715f, -0.10976667f, 0.07173325f, -0.15692377f, -0.02137223f, -0.22275025f, -0.02886990f, -0.03018682f, -0.12303150f, -0.01978860f, -0.05114210f},
    {0.11681640f, -0.04138604f, -0.03004837f, 0.09372161f, 0.15655974f, -0.04518831f, -0.01107290f, -0.01185464f, 0.19251265f, 0.03253691f, 0.05980481f, 0.00074076f, 0.42936429f, -0.04919463f, 0.01175112f, -0.12268931f},
    {-0.19393955f, 0.01787883f, -0.02792252f, -0.11330282f, 0.08582608f, -0.01845610f, 0.13182953f, 0.07219435f, -0.18352439f, 0.03185955f, -0.03624305f, 0.12625638f, -0.14505090f, 0.09306590f, 0.15433364f, -0.00448544f},
    {0.19389346f, 0.09818499f, 0.07956016f, -0.02854570f, 0.10141061f, 0.08601903f, -0.05027816f, -0.10539135f, 0.14898558f, 0.26298547f, -0.19293179f, 0.10670325f, 0.07895428f, 0.09537248f, -0.15993644f, -0.10277177f},
    {-0.04602034f, -0.17145082f, -0.00212883f, -0.08214408f, -0.13070148f, 0.01601084f, -0.05468761f, 0.09340623f, -0.19571538f, 0.07075543f, -0.06787743f, -0.03273825f, -0.06138057f, -0.03598686f, -0.05118241f, 0.04774569f},
    {-0.17709823f, -0.10615313f, -0.02947252f, 0.04925992f, -0.16400141f, -0.04173768f, -0.06619105f, -0.02415945f, 0.06088331f, -0.10714376f, 0.02946494f, -0.02582357f, -0.01191865f, 0.00332624f, 0.07052194f, 0.07929496f},
    {-0.11426231f, -0.05148781f, -0.05200541f, 0.00939920f, -0.15733942f, -0.01035826f, -0.13833290f, -0.14550553f, -0.02537672f, -0.20358115f, -0.04549684f, 0.20141758f, -0.19497406f, -0.19976893f, 0.03690060f, -0.03422694f},
    {-0.26250190f, -0.19835520f, 0.07523066f, 0.06010171f, -0.24991795f, -0.00889699f, 0.05940101f, -0.09354454f, -0.21972881f, 0.08731404f, -0.13554628f, -0.03973895f, -0.21756239f, 0.11601187f, -0.02015440f, 0.10624167f},
    {0.00035792f, -0.10462474f, -0.07320087f, 0.10042121f, 0.00555018f, 0.03993107f, 0.07799311f, 0.01338717f, -0.05090605f, -0.12262955f, 0.00199998f, -0.14977179f, -0.03297123f, 0.12656641f, 0.10091662f, 0.12389820f},
    {0.06347515f, -0.16729391f, -0.19229980f, -0.08098535f, -0.22461289f, -0.26840857f, 0.04343038f, -0.06982053f, -0.06598986f, -0.14897646f, -0.01090856f, 0.01152102f, -0.02599341f, -0.07538752f, 0.08522876f, -0.12658803f},
    {0.00113873f, 0.09303346f, 0.00795132f, 0.05704741f, -0.16518535f, -0.02660924f, -0.08345618f, -0.11413719f, -0.27625754f, -0.10412171f, 0.02957376f, 0.01079431f, -0.01074316f, -0.02329115f, 0.10276559f, 0.01915343f},
    {0.09591062f, 0.08671030f, 0.04688602f, -0.15174264f, 0.14731790f, 0.00333139f, 0.03578135f, 0.04995357f, -0.10542336f, 0.08968377f, 0.02348590f, 0.02406050f, 0.12922649f, 0.08932201f, -0.09849168f, -0.01006053f},
    {0.05777752f, -0.06148731f, 0.13777250f, 0.07204526f, 0.01107477f, 0.03345792f, 0.15938251f, 0.02257025f, -0.11614155f, -0.02616370f, 0.00307254f, -0.13013145f, -0.07304396f, -0.04429173f, -0.09115420f, -0.03342997f},
    {-0.19703610f, -0.04862853f, 0.09333495f, 0.03403878f, -0.21635874f, 0.01237939f, 0.02206809f, -0.02652292f, -0.10049302f, 0.02835713f, -0.16895439f, 0.06302997f, -0.13567780f, -0.07204010f, -0.02760080f, -0.04277873f},
    {0.06212771f, 0.09746085f, 0.02259590f, -0.12216254f, 0.06167832f, -0.00653045f, 0.14590447f, 0.13654484f, 0.12712714f, 0.16771276f, -0.11160531f, -0.01832901f, -0.10162099f, -0.02239243f, -0.06135203f, 0.01409178f},
    {-0.06335670f, 0.05248894f, 0.10946245f, -0.12645261f, -0.14129373f, -0.08804909f, 0.09872062f, 0.20699649f, 0.02408386f, -0.13375913f, -0.07985018f, 0.05045667f, -0.01456596f, -0.06109469f, 0.03287756f, -0.04356674f},
    {0.12859483f, -0.01112135f, 0.01755394f, 0.05832990f, 0.21570452f, 0.09544481f, 0.05608857f, 0.09456541f, -0.06787799f, -0.01594464f, -0.06452956f, -0.06032849f, -0.13295692f, 0.06095858f, -0.08784135f, 0.09857654f},
    {0.03388472f, 0.02805277f, -0.13181263f, -0.02345391f, -0.02008971f, 0.09652635f, -0.05088087f, 0.08873104f, -0.10572755f, 0.04487562f, -0.13099895f, -0.02107049f, -0.06408361f, -0.00367992f, -0.03506772f, -0.05877988f},
    {0.08590058f, 0.05277984f, -0.04666134f, 0.08033814f, -0.07475787f, 0.28909332f, 0.07947148f, 0.06176116f, 0.22534412f, -0.00409236f, -0.00782865f, -0.03626439f, 0.17694327f, 0.12054504f, -0.18771492f, 0.02586410f},
    {0.03986730f, 0.14437616f, -0.15880564f, 0.10012510f, -0.05984737f, 0.12987611f, 0.06633659f, -0.10110196f, -0.16027968f, -0.12623285f, 0.03613626f, -0.15497452f, 0.02165342f, -0.11420996f, 0.08999240f, -0.04929022f},
    {-0.18611607f, -0.09976228f, 0.04987113f, -0.08245405f, -0.16694336f, 0.01048025f, 0.18773642f, -0.01936736f, -0.14075020f, -0.15254627f, 0.08877668f, 0.07668039f, -0.11626302f, -0.05464885f, -0.03059423f, -0.02213744f},
    {0.01468732f, 0.01734115f, 0.05295870f, -0.06196996f, 0.16941072f, 0.23218377f, -0.05250027f, 0.01765553f, 0.18784714f, 0.01065671f, -0.07119279f, 0.17856418f, 0.14368893f, 0.13785967f, 0.09267435f, -0.13820288f},
    {-0.03181577f, 0.23350590f, -0.15625115f, -0.05026713f, 0.00376256f, 0.10608962f, -0.01133766f, -0.06183642f, 0.04108219f, -0.00941900f, -0.02585867f, -0.00283092f, 0.04275977f, -0.09513912f, -0.04605020f, 0.08830513f},
    {0.06279107f, 0.04211232f, 0.04176970f, -0.13611092f, -0.05516465f, -0.01677109f, 0.00515577f, -0.02394906f, 0.05639287f, -0.08812462f, 0.01263230f, -0.02654200f, -0.06697544f, 0.04341564f, 0.03213862f, 0.02591393f},
    {-0.07976973f, 0.07011615f, 0.01977884f, 0.00654476f, 0.01843470f, 0.06430941f, 0.01887153f, -0.01453217f, 0.04997655f, 0.00368964f, -0.19414072f, 0.24182938f, 0.08047133f, -0.05592777f, -0.03288191f, -0.10015715f},
    {-0.00774469f, 0.04582252f, 0.02011262f, 0.17985713f, -0.17463772f, -0.04170134f, -0.04996467f, 0.08941262f, -0.04641039f, -0.00526981f, 0.24107933f, -0.08412539f, -0.10111437f, -0.05784013f, 0.22731759f, -0.07973424f},
    {0.21523774f, 0.18094921f, -0.08439212f, -0.12921469f, 0.09500220f, 0.03376519f, 0.04607108f, -0.13057692f, 0.06838664f, 0.17398854f, 0.05512206f, 0.01740408f, 0.09611984f, -0.13678299f, 0.02677201f, -0.08127469f},
    {-0.21154703f, 0.01686986f, -0.10754494f, 0.05339321f, -0.15281464f, 0.07987895f, 0.11858954f, -0.01475491f, -0.06336445f, 0.09065548f, 0.11531295f, 0.02930854f, -0.13989341f, 0.02134484f, 0.10552340f, 0.01066638f},
    {-0.05679168f, 0.09733006f, -0.01113980f, -0.11288917f, -0.02550156f, 0.10631493f, 0.04322436f, 0.11585133f, 0.00654606f, -0.00732427f, -0.01528261f, -0.19239762f, 0.13405861f, 0.08825885f, 0.04532105f, 0.05850513f},
    {0.02959059f, 0.04966464f, 0.18370003f, -0.09234130f, -0.02718000f, -0.02526525f, 0.10662612f, -0.01514756f, 0.06704686f, -0.05087398f, -0.06427611f, -0.03381851f, 0.07230253f, 0.16346864f, -0.04145121f, 0.05126600f},
    {-0.13105877f, 0.01548023f, 0.07633161f, -0.02550694f, -0.04883145f, -0.01029548f, -0.00415728f, -0.01113988f, -0.10545006f, -0.04009178f, -0.00015829f, -0.07331153f, 0.03900271f, -0.09657312f, -0.15368745f, -0.14995247f},
    {-0.17386179f, -0.02724477f, -0.21282689f, -0.08875682f, -0.18701696f, 0.05673367f, -0.04143242f, 0.00970711f, -0.12507293f, -0.09100799f, 0.02190493f, 0.08365433f, -0.19332431f, 0.06303877f, 0.05596460f, 0.06074452f},
    {-0.05197803f, 0.10128786f, 0.11585551f, 0.09102337f, 0.01848491f, -0.05848069f, 0.03342029f, 0.08852007f, -0.02269507f, 0.04009392f, 0.12062787f, -0.05700207f, -0.00660878f, 0.05487304f, 0.06257594f, -0.02989388f},
    {-0.13834122f, -0.07145710f, 0.05892879f, 0.06170171f, -0.00364906f, -0.05355203f, 0.01858001f, -0.23270454f, 0.02273778f, -0.05664767f, -0.05162671f, -0.04762181f, -0.13861406f, -0.07680259f, 0.27068657f, 0.08956423f},
    {0.12204108f, -0.05618786f, 0.07407361f, -0.06143817f, 0.04570078f, 0.00919107f, 0.08299968f, -0.03846481f, -0.01950049f, -0.01216294f, -0.06379715f, -0.13764876f, 0.01652668f, -0.11081897f, -0.11351742f, -0.14331643f},
    {-0.21865427f, 0.03909768f, 0.01450887f, 0.04159254f, 0.00354972f, -0.11690689f, 0.12859492f, 0.01426830f, -0.09771324f, -0.06316080f, 0.10106891f, 0.00275432f, -0.04264096f, -0.11937619f, 0.03864219f, 0.05638569f},
    {-0.02931295f, 0.02360815f, 0.04050688f, -0.15341394f, -0.08463214f, 0.01738585f, 0.05502585f, 0.05798838f, 0.00967751f, 0.00998649f, -0.01090807f, -0.01048937f, -0.11970128f, -0.09294894f, 0.05270725f, -0.03306256f},
    {0.00206916f, 0.17210671f, -0.06716526f, 0.03156292f, 0.11509487f, 0.03324820f, 0.04260778f, 0.01546609f, 0.10632797f, 0.03545894f, 0.12756607f, -0.01298110f, 0.21525480f, 0.06550609f, 0.03789736f, -0.07919408f},
    {-0.06790810f, -0.01376942f, -0.00467585f, 0.00098163f, -0.03859030f, 0.07363471f, -0.13353905f, -0.05696242f, 0.21120210f, -0.09087966f, 0.12147233f, -0.01079679f, -0.06938737f, -0.13167080f, -0.04780680f, -0.15867007f},
    {-0.05078768f, -0.04629339f, 0.06588368f, 0.08157035f, -0.10400359f, 0.08708918f, -0.05136972f, 0.07526060f, -0.07551496f, -0.13803510f, -0.02728478f, -0.11997546f, 0.04524677f, -0.26758462f, 0.12501515f, -0.09437405f},
    {0.09381949f, 0.03342145f, 0.30032459f, -0.07039948f, 0.10001039f, 0.10880630f, 0.00245250f, 0.22297244f, -0.10702378f, -0.00586486f, -0.11610512f, 0.13458562f, 0.05436481f, 0.01694860f, -0.02525879f, 0.07561570f},
    {-0.14533588f, 0.07658476f, 0.03957745f, 0.10641162f, -0.06554681f, -0.00228101f, -0.00558352f, 0.01597263f, -0.04181982f, -0.06726697f, 0.06556766f, -0.00222198f, -0.05901434f, 0.09536915f, -0.22764763f, -0.11365648f},
    {-0.08672609f, -0.20430724f, 0.11575887f, 0.01182455f, -0.05616591f, 0.06554493f, -0.08485555f, -0.07435684f, -0.07020336f, -0.02681342f, -0.05653025f, -0.10679027f, 0.02532474f, -0.09551783f, -0.11864005f, -0.08398296f},
    {0.03664615f, -0.14135645f, -0.08841281f, -0.01665173f, -0.13198949f, 0.01621473f, -0.05299763f, 0.01474781f, -0.07494183f, 0.09987482f, -0.04583733f, -0.20412606f, 0.12381879f, -0.12231379f, 0.17036089f, 0.02146047f},
    {-0.07207874f, 0.06509650f, 0.08576075f, -0.03178369f, -0.07593713f, 0.09758469f, -0.06534474f, -0.05119613f, -0.28307348f, -0.01299729f, 0.03743410f, 0.11555575f, -0.30301657f, -0.08065266f, 0.01443171f, 0.00718501f},
    {-0.04191845f, -0.00098462f, -0.01351091f, 0.01623775f, 0.17618160f, -0.07832814f, 0.03683562f, 0.13199650f, 0.10975027f, 0.04225380f, 0.05472039f, -0.07777360f, 0.12794237f, 0.17287353f, 0.03330750f, -0.10202605f},
    {-0.02606781f, -0.00348819f, 0.16151194f, 0.07115187f, 0.00576320f, 0.10824498f, -0.04921189f, -0.00057813f, -0.17506337f, 0.14373352f, 0.02906048f, 0.03203001f, -0.08240127f, -0.01987109f, 0.12394655f, -0.08988792f},
    {0.17935671f, -0.18704085f, 0.08701023f, -0.10529557f, 0.01775650f, 0.00665278f, 0.09870015f, 0.10247717f, -0.00548285f, 0.08191828f, 0.00890276f, 0.04416339f, -0.05966669f, 0.01446840f, 0.03720848f, -0.02530419f},
    {-0.18718165f, -0.12481710f, -0.05734078f, -0.03521131f, 0.01059060f, -0.18050002f, 0.01954986f, -0.15101856f, -0.13154234f, 0.04975079f, -0.12761295f, -0.07035658f, -0.00627240f, -0.07226221f, -0.01856033f, 0.00532814f},
    {0.07589799f, -0.04229141f, -0.01210016f, -0.01419481f, 0.08065624f, 0.15795080f, -0.13933185f, -0.06670901f, 0.10296036f, -0.03385099f, -0.01277660f, -0.11313633f, -0.05429280f, -0.09205393f, 0.20640928f, 0.09219502f},
    {0.09855687f, 0.19632022f, -0.04282658f, -0.01691263f, -0.04143956f, 0.04152309f, 0.12788808f, -0.18284115f, -0.06876784f, -0.04982318f, 0.05841148f, 0.06068042f, 0.02199310f, -0.20709959f, -0.07420284f, 0.08061976f},
    {-0.04313132f, -0.00872295f, 0.12583859f, 0.05774336f, 0.09608152f, 0.07273475f, 0.10295408f, 0.15570770f, -0.02082949f, 0.10056628f, 0.20923366f, 0.01724228f, -0.22585778f, 0.13078244f, 0.16648854f, -0.06959976f},
};
const float L0_B[256] = {-0.01179805f, -0.00972462f, 0.00198482f, 0.00179767f, 0.00915685f, -0.00074881f, -0.00532812f, -0.01657160f, -0.00407410f, 0.00774433f, -0.00796871f, 0.00249854f, 0.00152761f, 0.01318461f, -0.01958562f, -0.00067493f, -0.01085323f, 0.00586701f, 0.00083707f, 0.00547400f, 0.01911507f, -0.01252103f, 0.00714996f, 0.01270541f, 0.00182205f, -0.00053165f, -0.00997671f, 0.00150178f, -0.00546020f, 0.00634759f, 0.00557342f, 0.01252642f, -0.00388904f, -0.01246108f, -0.01102029f, -0.00456501f, 0.00417055f, -0.00293379f, -0.01435497f, 0.00387432f, 0.00545878f, 0.00300609f, -0.00774072f, 0.00979934f, -0.00294427f, 0.00027897f, 0.00378232f, -0.00076332f, -0.00186571f, 0.00608263f, -0.01105283f, -0.00627208f, -0.00040839f, 0.00944097f, -0.00602551f, -0.00737348f, -0.00171423f, 0.00406979f, -0.01600781f, -0.00792474f, 0.01369988f, -0.00590369f, -0.02016176f, 0.00508320f, -0.00315894f, -0.00419450f, 0.00168817f, -0.01083147f, 0.00309132f, -0.01632803f, 0.00228404f, -0.00940108f, -0.02692776f, -0.00830769f, 0.00770417f, -0.01880590f, 0.00256105f, -0.01670745f, 0.00646824f, -0.01264231f, -0.01582557f, 0.00859796f, 0.00176797f, 0.00067046f, -0.00262850f, 0.00965991f, 0.00619198f, 0.00183713f, -0.00229018f, -0.01551525f, 0.01177312f, -0.00584090f, -0.00274882f, -0.00158149f, 0.00037073f, 0.01828398f, -0.00359953f, 0.00957432f, 0.00563841f, -0.00366636f, 0.00789085f, 0.00688277f, 0.00670832f, -0.00665413f, -0.00748983f, -0.00333700f, 0.00341769f, 0.00424224f, -0.01561182f, -0.00110857f, 0.00757747f, 0.00097588f, -0.01113504f, 0.00896965f, 0.00267871f, -0.00950051f, -0.00736691f, -0.00600555f, 0.00141907f, -0.00719729f, -0.00453099f, 0.00628353f, -0.00853375f, -0.00111780f, -0.00636050f, 0.00447878f, 0.00387508f, -0.00413887f, 0.01141583f, -0.00810550f, 0.00918334f, -0.00382048f, -0.00147584f, -0.00987626f, -0.00581236f, 0.01402324f, -0.01200632f, 0.02914283f, -0.00424808f, -0.00911711f, -0.00704074f, 0.01018942f, 0.00589069f, 0.00106558f, 0.00429532f, -0.00469114f, -0.00278015f, -0.01703450f, 0.00231563f, 0.02100516f, 0.01057216f, -0.01058256f, 0.00982921f, 0.00667650f, -0.02018277f, 0.01027883f, -0.00560826f, -0.00240749f, 0.00340078f, -0.00640672f, -0.00872266f, -0.00502494f, -0.02652040f, 0.00118537f, 0.00124831f, -0.00482116f, 0.02582064f, -0.00383088f, -0.00258306f, 0.01902748f, -0.01134676f, -0.01364787f, -0.00257105f, -0.00054537f, 0.00091520f, 0.00711513f, 0.00451367f, 0.02208246f, 0.00570761f, 0.00177679f, 0.00936281f, 0.00031868f, -0.00132715f, -0.01266127f, -0.00363577f, -0.00276511f, -0.00850859f, -0.01038023f, -0.00340940f, 0.01157613f, -0.00220882f, 0.00311537f, -0.01882142f, -0.00035045f, 0.00523646f, -0.02504309f, -0.00227116f, -0.00565260f, 0.00085746f, -0.00374354f, 0.00873817f, 0.00671925f, -0.01461159f, 0.00190304f, -0.01237470f, 0.00282788f, 0.01755749f, 0.00747190f, -0.00162843f, -0.00437985f, -0.01652175f, -0.00366179f, -0.00214594f, 0.02660034f, -0.00516868f, 0.01076753f, 0.00510056f, -0.00702727f, 0.00871017f, 0.00768122f, -0.00209377f, 0.00512278f, -0.00528305f, 0.00466712f, 0.01551540f, 0.01289891f, -0.01454436f, -0.00425383f, 0.00481827f, 0.01404078f, -0.00789235f, 0.02391525f, 0.00331626f, 0.00939744f, 0.01031793f, -0.00299521f, 0.00322497f, -0.00825273f, 0.00314520f, 0.00234594f, 0.00016871f, -0.00057943f, 0.00751157f, 0.00031168f, -0.00639632f, 0.01204195f, 0.01315348f, 0.00776969f, 0.00100903f, -0.00559128f, 0.00345530f, -0.00202834f, 0.01786448f, -0.00747890f, 0.00558279f, 0.02888684f};

// Layer 1 (tanh): 256 inputs -> 256 outputs
const int L1_IN = 256;
const int L1_OUT = 256;
const float L1_W[256][256] = {
    {-0.00422479f, -0.14010707f, -0.00607595f, 0.06407972f, -0.01275887f, 0.04269461f, -0.16346999f, 0.16632538f, -0.07706310f, 0.01052203f, -0.13554156f, -0.06247246f, 0.06374750f, 0.00251519f, -0.04215977f, 0.06378918f, 0.14741528f, -0.01861517f, 0.15927938f, -0.04294529f, -0.10843684f, -0.07251554f, 0.02432181f, -0.04579015f, -0.06407513f, 0.01631153f, -0.10833841f, 0.08913529f, -0.02385138f, 0.03863972f, -0.07514046f, -0.12214042f, 0.11017699f, 0.11691697f, -0.23928420f, -0.04237906f, 0.07946412f, -0.11650121f, 0.08047363f, 0.09674868f, -0.06125778f, 0.04233038f, 0.12848873f, -0.15710089f, -0.05407752f, -0.04478603f, 0.10372486f, 0.10150833f, -0.04741110f, -0.02039456f, 0.01322433f, -0.13201278f, -0.04539852f, -0.04661973f, 0.00174161f, -0.03962511f, -0.01834421f, 0.07388746f, 0.09263107f, 0.02412533f, -0.08689738f, -0.05676725f, -0.09683250f, -0.06072700f, 0.02290124f, -0.00812759f, -0.04263607f, -0.01112631f, 0.01308684f, -0.09325533f, -0.06311134f, -0.05779803f, 0.04795838f, 0.06020830f, -0.06094524f, -0.03176581f, 0.02791911f, 0.03950574f, 0.16862540f, -0.04483647f, -0.00700581f, 0.00544036f, 0.09298756f, -0.03901256f, 0.05958373f, 0.02095251f, -0.03788354f, -0.01999807f, -0.02064274f, 0.01944046f, -0.08355702f, -0.23779784f, -0.02568947f, 0.11331142f, 0.15567210f, -0.03010705f, 0.10498993f, -0.14721011f, 0.08481299f, -0.09944935f, -0.11505019f, -0.06968146f, 0.09019764f, 0.04146199f, -0.03035725f, 0.11731645f, 0.07080958f, -0.07414777f, 0.07303547f, -0.08069886f, -0.21897334f, 0.13626856f, -0.15294190f, 0.23008387f, -0.04094454f, -0.04447138f, -0.08496458f, 0.02732006f, -0.00430661f, -0.06111130f, 0.03102689f, -0.10653623f, 0.00099003f, 0.12573697f, 0.01697766f, -0.01712746f, -0.00392202f, 0.05439346f, -0.09006876f, 0.00973940f, 0.05400730f, 0.02776610f, 0.10032773f, -0.14167900f, -0.08169075f, -0.00892677f, -0.01650185f, 0.11295152f, 0.02850329f, 0.00349740f, -0.05217958f, 0.01075272f, -0.01488543f, 0.09502346f, -0.09897354f, 0.08976031f, 0.08575208f, 0.05807514f, -0.01150970f, 0.10500149f, 0.18406431f, 0.05799505f, 0.10007802f, 0.10978246f, 0.09401175f, 0.01538946f, 0.08674405f, -0.02319000f, 0.09738635f, -0.02494696f, -0.08929463f, -0.03666662f, 0.00635147f, -0.08855455f, 0.12168144f, 0.11546796f, 0.06016565f, 0.06750822f, -0.01977355f, -0.08788275f, -0.04095497f, 0.18422264f, 0.01578496f, 0.01302185f, 0.04151777f, -0.02630840f, -0.02481989f, 0.06508815f, 0.01029451f, -0.01023640f, -0.11521219f, -0.08032609f, 0.15920244f, 0.00122292f, 0.13358578f, -0.07988699f, 0.04403459f, -0.01942920f, 0.03956115f, 0.05686639f, -0.18982656f, -0.08248571f, -0.13000159f, 0.05883296f, -0.00552923f, -0.02807699f, -0.21094045f, 0.01824325f, -0.17626256f, 0.20888682f, -0.01861241f, -0.12153422f, -0.09732193f, -0.00085060f, -0.01560625f, 0.02132065f, 0.08372449f, -0.06592736f, 0.03475984f, 0.07360413f, -0.12686066f, -0.03977988f, 0.03362693f, -0.17330220f, -0.11227500f, -0.01769161f, -0.16836461f, -0.11968137f, 0.10539571f, 0.13229297f, 0.04624839f, 0.01508850f, -0.09943294f, 0.04512494f, 0.16890900f, 0.06987860f, -0.19484550f, 0.12217974f, -0.09480320f, -0.17640127f, 0.06374252f, 0.04939447f, 0.00792511f, 0.08398362f, -0.05874607f, -0.02077636f, -0.06987716f, -0.02632922f, -0.00830875f, -0.08742514f, 0.02283573f, -0.03487455f, -0.02751722f, 0.06219925f, -0.04400668f, 0.08187933f, 0.06263401f, -0.23127985f, -0.13342965f, -0.07205120f, 0.02223799f, -0.04644882f, -0.02862931f, 0.09771010f, -0.01963332f, -0.01716422f},
    {-0.13429508f, 0.00389219f, -0.03833100f, 0.04278316f, -0.10256299f, -0.00442892f, -0.17779857f, -0.04393166f, 0.03719520f, -0.11651050f, 0.04600062f, -0.01181233f, -0.01738688f, 0.02645778f, 0.05269524f, 0.06892677f, -0.03978878f, -0.07304805f, 0.20243977f, -0.07134973f, 0.04778866f, 0.15811993f, -0.13920502f, 0.04427836f, -0.07653242f, 0.02456223f, 0.04914813f, -0.08052934f, -0.06870815f, -0.22085305f, 0.02483488f, 0.08486815f, -0.08299264f, 0.03115874f, 0.10058461f, -0.00167802f, 0.03449753f, -0.07912482f, 0.01036470f, 0.04334239f, -0.12548147f, 0.08567677f, -0.11351787f, 0.10739907f, 0.10341263f, 0.04282023f, 0.11742115f, 0.04561369f, 0.07542054f, 0.10993609f, 0.00662781f, 0.21417186f, 0.08707040f, 0.05693158f, -0.07582563f, 0.05444937f, -0.09287514f, 0.01273975f, -0.00355310f, 0.14640413f, 0.15316856f, 0.06034373f, -0.20387451f, 0.01583536f, -0.16231969f, -0.08607387f, -0.13337648f, 0.04308691f, -0.03335911f, 0.07240620f, -0.08500886f, -0.02006464f, -0.10928166f, -0.03559133f, 0.04121216f, 0.10391834f, -0.08001994f, -0.21577163f, -0.01136344f, -0.00262441f, -0.11030126f, 0.05945199f, -0.02533255f, 0.06180310f, -0.06977875f, 0.05748754f, -0.04134494f, 0.05922629f, -0.01899016f, 0.11895576f, 0.14667152f, -0.05746492f, -0.12269751f, 0.16082084f, 0.05804228f, 0.17397818f, 0.19902350f, 0.04648978f, 0.06242411f, -0.03031499f, 0.04758129f, 0.11468931f, -0.11796841f, -0.09175114f, 0.03408493f, -0.02901616f, 0.03392537f, -0.08617970f, -0.05753317f, 0.06370172f, 0.03615672f, -0.05761130f, 0.00709428f, -0.11129887f, -0.07090981f, -0.05194892f, 0.05745343f, 0.13494514f, 0.00415268f, -0.02530367f, 0.06782650f, -0.08668584f, 0.10057034f, 0.02286655f, 0.07107707f, 0.00229612f, -0.13891937f, 0.13495879f, 0.03168590f, -0.07790013f, 0.01577986f, -0.00153402f, 0.10531459f, 0.03284922f, -0.03909299f, -0.06916160f, 0.04978993f, 0.01742037f, -0.01402517f, 0.04925602f, 0.00799960f, -0.00798771f, -0.10385042f, -0.12503646f, 0.10817036f, 0.03616635f, -0.03417319f, 0.13170038f, 0.00440772f, 0.05467778f, 0.10469357f, -0.02294655f, -0.02556823f, -0.08729930f, 0.14424139f, 0.10261853f, -0.11759983f, 0.00808359f, 0.12274683f, 0.15575379f, 0.15530366f, -0.00324503f, 0.09666134f, 0.14867264f, 0.03237056f, 0.08611362f, 0.11481415f, 0.02794284f, -0.06710125f, 0.10430513f, 0.07692806f, -0.00125376f, 0.11311009f, 0.01812510f, -0.02801628f, -0.08336818f, -0.04204544f, 0.09587903f, 0.04719220f, -0.12248108f, 0.06382514f, 0.04430733f, -0.02652242f, 0.09872040f, 0.02777316f, -0.12258604f, 0.02139845f, -0.11812875f, 0.09262579f, -0.12444195f, 0.02910932f, -0.00667294f, -0.07794663f, 0.01264931f, -0.02969714f, 0.09269720f, 0.00754660f, -0.01905024f, 0.01357010f, -0.05092409f, 0.14111820f, -0.16634202f, 0.03325014f, -0.01378171f, -0.03977324f, -0.08593101f, 0.13395411f, -0.10543561f, -0.00903833f, 0.00172493f, 0.01203019f, -0.04043609f, 0.04259352f, 0.06694303f, -0.13043010f, -0.00155173f, -0.15290830f, 0.02631601f, -0.07954466f, 0.09870699f, -0.08377185f, -0.08063821f, -0.02023099f, -0.12533334f, -0.13140808f, -0.01528646f, 0.02387648f, 0.18324202f, 0.07878239f, -0.21096738f, 0.14146173f, 0.13186584f, 0.06265936f, -0.09471678f, -0.04178796f, 0.05047335f, 0.16382822f, 0.04628670f, 0.16048488f, 0.02861833f, 0.01920766f, -0.09863623f, -0.11061180f, -0.05979430f, 0.01685399f, 0.04811630f, -0.03672727f, -0.10993388f, 0.04985287f, 0.13109994f, -0.16060196f, -0.01114110f, 0.00719299f, 0.01211241f, 0.13587601f, -0.02539873f},
    {-0.05091869f, 0.02691909f, -0.15808614f, 0.07692345f, -0.13096923f, 0.14600879f, 0.02656315f, -0.08275723f, 0.00649985f, -0.01438532f, 0.07743555f, -0.14669207f, 0.02479745f, -0.08965279f, 0.08162960f, 0.18507800f, -0.06429856f, -0.07591677f, -0.08850302f, 0.15739794f, -0.02691208f, -0.08339463f, 0.00037452f, 0.01516548f, 0.20158468f, -0.04492295f, 0.12103996f, 0.10089608f, 0.12604778f, 0.10657403f, -0.15293063f, -0.09480719f, -0.05108469f, -0.15029287f, 0.00131970f, 0.03032821f, -0.07355667f, -0.22179730f, 0.05654429f, 0.04021586f, -0.05208385f, 0.13630134f, 0.01932096f, 0.05994401f, -0.02209153f, -0.05268876f, -0.06776952f, -0.06971853f, -0.04569462f, 0.03953322f, 0.02962949f, 0.02510723f, 0.06180235f, 0.12234464f, 0.07492954f, -0.00564566f, -0.14213629f, -0.10051189f, -0.09675609f, -0.11436251f, -0.05048623f, -0.11715480f, 0.09632215f, -0.02311696f, 0.19233292f, 0.03629976f, -0.01673606f, -0.00888162f, 0.03194403f, -0.00280487f, -0.00792445f, -0.04995534f, 0.04185033f, 0.01070011f, 0.05241713f, -0.00533298f, 0.00907237f, -0.09259176f, -0.16580561f, -0.07420288f, -0.01411503f, 0.02242683f, -0.00974654f, -0.02452347f, 0.00888408f, -0.09807520f, 0.12374117f, -0.19337748f, 0.04086892f, -0.03958043f, 0.09067538f, -0.03049934f, -0.03716063f, -0.06472839f, -0.07595813f, -0.02776808f, -0.06323781f, -0.08626083f, 0.01490766f, 0.01763605f, 0.05459173f, 0.02162460f, -0.08556879f, 0.01754893f, -0.06187582f, 0.07647844f, -0.08300264f, 0.16764541f, 0.02185202f, -0.16361839f, -0.19591142f, -0.03595375f, 0.01963464f, -0.08549330f, -0.13933794f, 0.04815430f, -0.08733233f, 0.00493846f, -0.04703316f, 0.10793305f, 0.03154124f, -0.02429091f, 0.00682909f, 0.12368693f, 0.06870487f, 0.07821179f, 0.06984919f, -0.06606749f, -0.00679482f, 0.10318065f, 0.14280427f, -0.06392512f, -0.09772895f, 0.03865791f, 0.05545350f, 0.07394759f, 0.02423380f, 0.00533398f, -0.17723826f, 0.07000156f, -0.03180419f, 0.17483999f, -0.05747860f, -0.13863453f, 0.09867461f, -0.05676230f, 0.07745498f, -0.06417414f, -0.04044250f, 0.04155924f, -0.07390402f, -0.05434955f, 0.16505042f, 0.12882902f, 0.03283613f, 0.04065294f, 0.06126052f, 0.00847839f, 0.04916155f, 0.03688774f, 0.02470094f, -0.03081183f, 0.07187904f, 0.01051830f, -0.01889071f, 0.09695522f, -0.01985837f, -0.11208358f, 0.05075846f, -0.01006323f, 0.01271896f, -0.08716526f, 0.08146085f, -0.07256597f, -0.06576073f, -0.08745611f, 0.02522454f, 0.12262765f, -0.07787807f, 0.04211649f, -0.03208123f, -0.26583335f, 0.03928457f, 0.03916222f, 0.02601856f, -0.08563183f, 0.10812251f, 0.12082079f, 0.05986471f, -0.09573275f, -0.04485827f, 0.23482303f, -0.15736048f, -0.11257634f, 0.19099732f, -0.25182918f, 0.00520440f, 0.01595061f, 0.03318895f, -0.10088150f, 0.05586158f, 0.00072214f, -0.17466469f, 0.18496689f, -0.01319626f, -0.02584917f, 0.00087809f, -0.11906202f, -0.05745662f, -0.07625162f, 0.00945087f, 0.01290418f, 0.06366825f, 0.06182566f, -0.11450671f, -0.04853845f, -0.05615225f, 0.01777018f, -0.06103184f, -0.03611619f, -0.14309010f, 0.02120087f, -0.06238557f, -0.08294944f, 0.10538620f, 0.00839349f, 0.07190003f, 0.04401669f, 0.06524185f, -0.11031436f, -0.03344387f, -0.06850808f, -0.10644612f, -0.04955103f, -0.12686865f, -0.09589940f, 0.02929610f, -0.05826274f, 0.12254027f, -0.08326470f, 0.08798902f, -0.05478218f, 0.07148015f, -0.05896082f, -0.15540980f, -0.07962429f, 0.07098251f, -0.01721504f, -0.10025614f, 0.07224893f, -0.14631793f, 0.01313030f, 0.06831419f, -0.04888231f, -0.11446023f, -0.11541346f},
    {-0.02248163f, 0.00412677f, -0.05532766f, 0.08841035f, 0.15627092f, 0.00280728f, 0.05254586f, -0.00396379f, 0.01005734f, 0.12332370f, 0.16923212f, -0.05024087f, -0.12816051f, 0.03778783f, -0.02548769f, -0.01279193f, -0.07181454f, 0.10542271f, -0.06546403f, -0.09167427f, -0.07161070f, 0.10489863f, 0.08438183f, 0.01941938f, -0.01944478f, -0.01243625f, 0.13658009f, -0.02000637f, 0.14250204f, 0.04523775f, 0.03740209f, -0.13247558f, -0.08696994f, -0.09902229f, 0.03483303f, 0.06814586f, -0.08336458f, -0.06066817f, 0.07355822f, -0.04348977f, 0.12677859f, 0.12390515f, -0.04939700f, 0.06823497f, -0.07998972f, 0.03763870f, -0.15000501f, -0.07543624f, 0.05462632f, 0.05092411f, -0.04315625f, -0.02642377f, 0.14643306f, -0.12813336f, 0.07098515f, 0.10344613f, 0.02951172f, -0.00929553f, -0.01586739f, 0.10637164f, -0.09562865f, -0.04777335f, 0.07935215f, -0.07158505f, -0.06594731f, -0.11038142f, -0.07430299f, 0.17184462f, -0.02935578f, -0.09445314f, 0.00102865f, 0.13850564f, 0.18046303f, 0.07888069f, -0.14529599f, -0.03133916f, 0.02106755f, -0.05512994f, 0.08655244f, -0.02898322f, 0.09500170f, -0.01175046f, -0.07215299f, 0.14473304f, 0.00889827f, 0.06284007f, 0.09827038f, 0.10863798f, -0.06959208f, 0.03470214f, 0.18516861f, 0.01919939f, 0.02660221f, 0.00017797f, -0.01328280f, 0.13205908f, 0.00350525f, 0.24705367f, 0.01594261f, 0.03464342f, -0.09355723f, 0.02950644f, -0.08235273f, -0.02442354f, 0.00138850f, -0.18787412f, 0.19825132f, -0.00392955f, -0.01960847f, -0.07051080f, -0.03175442f, 0.21180041f, -0.07568695f, 0.09117243f, -0.06016299f, -0.10750898f, -0.00159302f, 0.02490827f, -0.09259319f, 0.08053652f, -0.02755757f, -0.10221268f, 0.00287284f, -0.01750056f, -0.01627035f, -0.01272325f, -0.02439401f, 0.15372297f, 0.05659156f, -0.02201158f, -0.00911907f, -0.04813604f, 0.16919529f, -0.18716189f, -0.00290893f, 0.00270393f, -0.11157353f, 0.04258928f, 0.07015368f, 0.08704882f, -0.01960752f, 0.09186178f, -0.03464214f, -0.10494909f, 0.00242731f, -0.04386517f, -0.06917427f, 0.12795772f, -0.03230567f, 0.03147540f, -0.27574766f, -0.01845209f, 0.02594157f, -0.08696403f, 0.05396292f, -0.08161125f, 0.12624684f, -0.09022059f, 0.07703806f, -0.03159810f, -0.04431841f, -0.05828506f, 0.11105837f, 0.14524962f, -0.15006000f, -0.09018908f, -0.06514046f, 0.04045926f, 0.08532577f, -0.14204434f, -0.02637385f, -0.01327898f, -0.04393176f, -0.08189029f, -0.01351465f, 0.16041927f, -0.04731762f, 0.00690151f, -0.07226066f, -0.09459050f, 0.10276058f, 0.01560015f, -0.03115318f, -0.01228116f, 0.09853490f, -0.04720641f, -0.02170852f, 0.15153207f, -0.06447483f, -0.02445548f, 0.02547744f, 0.01477572f, -0.10339749f, 0.24341886f, -0.02475693f, 0.14911182f, -0.00392193f, -0.17786446f, -0.03367190f, -0.06664042f, -0.09199926f, -0.08428402f, 0.06388441f, 0.03715564f, -0.03457823f, -0.00624427f, 0.11152110f, -0.07340784f, -0.02007939f, -0.01837427f, -0.09265220f, 0.08120584f, -0.07030246f, 0.02178151f, -0.02819840f, -0.12693924f, 0.11458845f, 0.13664511f, 0.00050207f, 0.14603905f, 0.09475266f, 0.18030119f, -0.09522633f, 0.01648787f, 0.10174285f, 0.05327694f, 0.09062612f, 0.13719457f, -0.12410090f, 0.03610243f, -0.03718342f, -0.04286869f, 0.01502770f, -0.00316013f, -0.11107719f, 0.06329532f, -0.07947407f, 0.04208605f, -0.14641945f, -0.02775639f, 0.15089720f, -0.00499161f, 0.06331382f, 0.08328040f, 0.03518260f, -0.02899837f, 0.13836524f, -0.06850968f, -0.19176981f, -0.05539741f, -0.06568289f, 0.00859058f, -0.10869114f, -0.00098244f, 0.02955550f, 0.20023482f},
    {-0.13671546f, -0.03911521f, -0.00528129f, 0.02007617f, -0.05294611f, 0.09765802f, -0.14888458f, 0.13092083f, -0.07049747f, -0.11054433f, 0.07722469f, 0.06267270f, 0.03234844f, -0.12433001f, -0.10964325f, -0.02168139f, -0.09514115f, 0.14447412f, -0.06133629f, 0.02580498f, -0.02949232f, 0.07781532f, -0.09937136f, 0.11293495f, 0.09819686f, 0.02257381f, 0.17488228f, 0.06707343f, -0.00626641f, -0.00525947f, 0.04119399f, -0.25483954f, -0.01788678f, -0.13588654f, -0.06302004f, -0.11006665f, -0.09413844f, -0.02181298f, -0.12202321f, 0.10805898f, 0.12947008f, -0.07659510f, 0.09048394f, 0.16441716f, 0.13341555f, 0.01199056f, 0.08659182f, 0.00159536f, 0.05843843f, 0.08641110f, -0.08804211f, 0.05729058f, -0.08839699f, 0.02701663f, -0.02055957f, 0.03854361f, 0.00366233f, 0.04805875f, -0.09377043f, -0.05145718f, -0.12588187f, -0.07996069f, -0.14474800f, 0.08174250f, -0.00813932f, 0.06918737f, 0.06520608f, -0.12222522f, 0.03018304f, 0.04117140f, -0.01023375f, -0.10088871f, -0.05280140f, -0.11649999f, 0.08196040f, 0.00963377f, -0.02475499f, -0.00910117f, -0.02630257f, 0.09182852f, 0.11187243f, 0.04947416f, -0.04013811f, 0.08551691f, -0.07032056f, 0.14256917f, 0.11399676f, 0.04114481f, -0.00179095f, 0.02911850f, 0.03860917f, -0.03814432f, -0.06989996f, -0.01925666f, 0.00174828f, 0.01243959f, -0.19119331f, -0.06518770f, -0.08130197f, -0.14173843f, 0.03758051f, -0.07130382f, -0.06955887f, 0.00231656f, 0.16258848f, 0.01188032f, 0.17871441f, -0.05336951f, -0.06025657f, -0.04095709f, -0.05165394f, 0.17825267f, 0.09442611f, -0.09944581f, 0.04248063f, -0.07401884f, 0.04121202f, -0.06499434f, -0.12073607f, -0.08599761f, -0.15216069f, 0.04737722f, -0.04608881f, -0.14153944f, 0.05573422f, 0.06003041f, 0.08192856f, -0.00482921f, -0.04056575f, 0.05584257f, 0.07280755f, -0.03218428f, -0.06165433f, -0.01078820f, -0.05802954f, 0.09748237f, -0.02469188f, -0.01372217f, 0.00418041f, 0.08394789f, 0.00216356f, 0.01599625f, -0.07353982f, 0.07920434f, -0.04798933f, -0.01353869f, -0.23524557f, -0.10557756f, -0.00256106f, 0.00595192f, 0.12797761f, 0.05216384f, 0.14694268f, -0.06431543f, -0.04453386f, -0.16763905f, 0.07338971f, -0.03133111f, 0.10651989f, 0.04247566f, 0.24080226f, -0.13137883f, -0.07744998f, -0.09838197f, -0.01643556f, -0.02286123f, 0.01306292f, -0.07543333f, 0.00449149f, -0.04718992f, 0.03426946f, 0.08721081f, 0.09098561f, -0.04149446f, -0.03800567f, 0.05584989f, 0.06865115f, -0.01056375f, 0.02174608f, -0.02944025f, 0.05096916f, 0.02361517f, -0.03023913f, -0.07010207f, -0.03402942f, 0.05106828f, -0.19781148f, -0.07123818f, 0.08446538f, -0.01165265f, -0.04584527f, 0.04537142f, -0.05227762f, -0.00312667f, 0.02906568f, 0.11294829f, -0.14407548f, 0.05743876f, 0.08267483f, 0.17276669f, 0.09654190f, 0.12062982f, 0.01488864f, -0.17894788f, 0.07091708f, -0.14126267f, -0.04186773f, 0.19020215f, -0.07465522f, -0.02873098f, 0.19276895f, 0.00318587f, -0.05335864f, 0.14125854f, -0.05343471f, 0.08809799f, 0.06860913f, 0.03655498f, -0.00686825f, -0.03804863f, 0.01282923f, 0.02018416f, 0.05450318f, -0.05961698f, -0.06913780f, -0.03897006f, -0.20611192f, -0.05653298f, -0.18019734f, -0.17240727f, 0.08813556f, 0.00173704f, -0.15438969f, -0.16641331f, -0.00701367f, -0.06410590f, -0.12531963f, 0.03027868f, -0.11021866f, -0.00344929f, 0.11596119f, 0.01556453f, -0.13941631f, 0.16661124f, -0.01113714f, -0.02369415f, 0.02624808f, -0.05382314f, -0.05165212f, 0.06890623f, 0.13108441f, 0.11952747f, -0.01960807f, 0.01496719f, -0.07380622f, -0.05264382f},
    {-0.08586618f, 0.06771195f, 0.10949388f, 0.00759465f, -0.07023489f, -0.00929112f, 0.12547041f, -0.08081695f, -0.11609261f, -0.13554667f, -0.02676900f, 0.08522463f, 0.14888623f, 0.08275335f, 0.17856981f, 0.04461017f, -0.08539091f, -0.01800784f, 0.03883224f, -0.08697110f, -0.08941897f, -0.13374087f, 0.14451309f, 0.07055063f, 0.02774654f, 0.06562538f, -0.05336489f, -0.02654187f, 0.02036239f, 0.05075062f, -0.00543464f, 0.04779284f, -0.01448053f, -0.02198173f, -0.13708320f, 0.13968457f, 0.01922983f, 0.01447727f, -0.05406101f, 0.00625398f, 0.01878980f, -0.02916605f, 0.05647703f, 0.00624196f, -0.10219989f, 0.09748827f, 0.13425423f, -0.01160606f, -0.00869309f, -0.02156715f, 0.24307320f, 0.11472047f, -0.07982898f, 0.12171239f, 0.20615700f, -0.06349435f, 0.09891729f, 0.03405285f, 0.07858890f, -0.14957796f, 0.05297000f, 0.03855850f, -0.05713520f, -0.05162432f, -0.01535345f, 0.03424383f, 0.07562608f, 0.12282577f, 0.22873567f, -0.03748811f, 0.01547748f, 0.19554541f, -0.03147500f, 0.04250088f, -0.07909460f, -0.03217631f, 0.01807137f, 0.00602423f, -0.03906376f, -0.02479949f, -0.03564950f, -0.16854677f, 0.05875400f, -0.08144751f, -0.09947813f, 0.12357885f, -0.02911596f, -0.16539079f, 0.07585726f, 0.10227346f, -0.03090210f, 0.01668500f, -0.06715897f, -0.11983521f, 0.06827334f, 0.05921663f, -0.03045456f, 0.06828768f, 0.07971966f, -0.03344462f, -0.10852277f, 0.13995710f, -0.19585985f, -0.07226308f, 0.00288560f, -0.02161078f, 0.00263192f, -0.01743755f, 0.18032551f, -0.04085613f, 0.02534178f, 0.08322369f, -0.07965439f, -0.18466961f, -0.04628282f, 0.04578193f, -0.01163089f, 0.10859036f, 0.10120628f, 0.04225479f, -0.14205723f, 0.14318198f, -0.04185923f, 0.08304901f, 0.14591794f, 0.05315917f, 0.17837548f, 0.06388283f, 0.03182340f, 0.07574712f, -0.00997034f, -0.02308755f, 0.10313848f, -0.14751168f, -0.10400342f, 0.04571853f, 0.16792439f, -0.16221610f, 0.08931039f, -0.21025918f, 0.06841262f, 0.01625848f, 0.02475356f, -0.12730336f, 0.08240835f, -0.00868056f, -0.03796734f, 0.01184960f, 0.04922821f, 0.01782828f, 0.04346034f, -0.02177584f, -0.11821196f, 0.13583209f, -0.07805608f, 0.00077853f, 0.14371888f, -0.14953865f, 0.14516090f, 0.00801476f, 0.06402691f, -0.04910900f, 0.16467693f, 0.07283392f, 0.05635937f, -0.01837685f, 0.06068106f, -0.15299523f, -0.01178141f, 0.13721204f, 0.08496457f, 0.02255454f, 0.07480220f, 0.08132877f, -0.01771204f, -0.02686875f, 0.19959654f, 0.02480022f, -0.06511049f, -0.01434382f, -0.01782135f, 0.14621656f, 0.05702078f, 0.01677985f, 0.15120983f, 0.00604494f, -0.10925978f, -0.01434414f, 0.03698756f, -0.07735229f, 0.02970765f, -0.07734205f, -0.09679984f, 0.02757082f, -0.08991963f, -0.03618274f, 0.01701252f, 0.02126793f, -0.11103553f, 0.04296885f, -0.08819781f, -0.05436045f, 0.21891136f, 0.07083327f, -0.06422529f, 0.00234665f, 0.02134666f, 0.08246514f, -0.11727859f, 0.06556320f, 0.03096893f, 0.14857157f, 0.09179401f, -0.04416736f, 0.09308048f, -0.07371138f, 0.09663087f, -0.06698213f, 0.01959510f, 0.02661190f, -0.02300315f, -0.00972685f, -0.12372508f, 0.06045394f, -0.06886002f, -0.04366285f, -0.10625549f, -0.04999953f, 0.02143924f, 0.08242412f, -0.00918419f, -0.06258561f, 0.08518832f, 0.03958200f, -0.05213648f, -0.04424495f, 0.01826713f, 0.10670308f, 0.01827203f, 0.04574261f, 0.10474911f, 0.13747281f, -0.09156845f, 0.02723774f, -0.00078587f, 0.05295603f, 0.17006950f, 0.08182633f, 0.00205718f, 0.13221703f, 0.06847324f, -0.01981156f, -0.03494524f, 0.07014034f, -0.10153550f, -0.05263865f},
    {-0.04269665f, 0.11064175f, -0.21698888f, 0.03901326f, -0.12292863f, 0.07635303f, -0.03234506f, -0.08376335f, 0.06329224f, -0.03902791f, -0.03991807f, 0.06544825f, -0.00495927f, 0.01244744f, 0.00793457f, -0.03649549f, 0.01504126f, 0.03345165f, 0.09040222f, -0.15134378f, 0.02934423f, -0.01715282f, -0.04394961f, 0.09882148f, 0.06147479f, 0.08343900f, -0.03132803f, -0.01800005f, 0.11762545f, -0.05631178f, 0.06055131f, -0.03626606f, 0.15506189f, -0.12011260f, 0.01475619f, 0.15166010f, 0.06796738f, -0.04845676f, -0.09191298f, 0.01333064f, -0.02000623f, 0.02695541f, 0.03180897f, -0.11896016f, 0.07296375f, 0.03573892f, 0.03409998f, 0.07017815f, 0.08348950f, -0.01898791f, -0.11339833f, -0.08961663f, 0.03846740f, 0.09704486f, 0.21532391f, -0.08630136f, 0.12903841f, 0.04321106f, -0.03796775f, 0.11118291f, -0.11587113f, -0.01672810f, 0.02996886f, 0.08326370f, 0.09575783f, -0.05754470f, -0.08517360f, -0.26746395f, -0.00243663f, 0.19224787f, 0.02573743f, 0.03467740f, -0.14598750f, -0.06862450f, -0.05679771f, -0.08695716f, -0.03568728f, -0.07760233f, -0.06833278f, -0.02376524f, -0.07380082f, -0.06501814f, -0.05109647f, 0.03407611f, -0.02794581f, 0.03296539f, -0.04368964f, 0.15468283f, -0.20997250f, 0.07921652f, 0.08060064f, -0.12068065f, 0.03214704f, -0.03825019f, 0.12548275f, -0.03805150f, 0.03232143f, 0.14342114f, -0.07742544f, -0.04196280f, -0.23184176f, 0.00994527f, -0.04076551f, 0.09458797f, -0.10797187f, 0.07786602f, 0.06721450f, 0.02510803f, 0.03511918f, 0.07168448f, 0.01776321f, 0.02326565f, 0.01554335f, 0.11107373f, 0.11372481f, 0.05761341f, -0.03613292f, 0.00881665f, 0.01077382f, 0.07358126f, 0.12792733f, 0.13580705f, -0.03138414f, 0.11936627f, -0.00818944f, -0.05779587f, -0.08901700f, 0.03923968f, -0.07163063f, -0.10852224f, 0.18649368f, 0.11444325f, -0.02962474f, 0.07043415f, 0.01533973f, 0.08276320f, -0.06818591f, 0.04165772f, -0.12281797f, -0.03530537f, 0.03524931f, -0.05810110f, -0.12188996f, -0.15609208f, -0.08651416f, -0.10967147f, 0.08102735f, 0.07840481f, -0.03199797f, -0.01862612f, 0.11145557f, -0.00522656f, -0.06198156f, -0.01172828f, 0.03938785f, -0.10737322f, -0.04729772f, 0.20285781f, -0.01591046f, -0.10281172f, 0.12142517f, 0.01798038f, 0.08371167f, -0.15217865f, -0.09442411f, -0.00724737f, -0.02002718f, -0.00838810f, 0.01664262f, 0.01460088f, 0.12081521f, 0.05448881f, -0.00780231f, -0.14295559f, -0.09265742f, 0.19096151f, 0.06300163f, -0.00892993f, -0.02174269f, 0.06398367f, -0.06678414f, 0.05549917f, -0.25924301f, 0.05922953f, 0.07463524f, -0.10247612f, 0.06470200f, -0.09665536f, 0.03993266f, 0.04800118f, 0.04809895f, 0.11461342f, -0.04143108f, 0.22532833f, 0.03953688f, 0.02737852f, -0.05030232f, 0.00562682f, 0.01023199f, 0.09500512f, -0.12092286f, -0.06208496f, 0.08130035f, 0.13591413f, 0.09290181f, 0.08666048f, -0.02080950f, -0.05451883f, -0.06009919f, -0.02403008f, 0.08265216f, 0.03488481f, 0.16635221f, -0.17891988f, 0.04595228f, 0.00895538f, 0.03225001f, 0.02843706f, 0.12060864f, -0.04632644f, 0.04521110f, -0.01545305f, 0.00539379f, -0.07024443f, 0.02278412f, -0.00457623f, 0.00867843f, 0.00071054f, 0.03248511f, 0.12224631f, -0.02535586f, -0.01247198f, 0.02289351f, -0.11136196f, 0.09382758f, -0.20819992f, -0.06169795f, 0.02081037f, -0.04540202f, 0.11330055f, -0.03997459f, -0.11744329f, 0.17696442f, -0.10937502f, -0.14962351f, -0.16570778f, -0.06060496f, 0.03456504f, 0.16900387f, -0.01806786f, 0.11317562f, -0.04689575f, 0.02374013f, 0.00076139f, -0.05096580f, 0.01107309f},
    {0.06711467f, -0.12295432f, 0.06704402f, 0.00549748f, -0.02927322f, -0.09882867f, 0.00809876f, -0.01162481f, 0.06661016f, -0.05494054f, 0.14399266f, -0.04275996f, -0.03407327f, -0.09619125f, 0.06636372f, -0.29960135f, -0.03738851f, -0.03305840f, -0.01815734f, -0.06288660f, -0.01708447f, 0.14091325f, -0.03513440f, 0.02102196f, -0.05031409f, -0.00311941f, -0.08039535f, 0.01108974f, 0.12446997f, 0.09433091f, 0.08994672f, 0.02308352f, -0.06894898f, -0.13600489f, 0.08390311f, 0.03953962f, -0.16106695f, 0.07439496f, 0.09218901f, 0.02349137f, -0.18039228f, 0.06641854f, 0.20485879f, 0.02350540f, 0.08760963f, 0.11049401f, -0.01199510f, -0.18319865f, 0.03915079f, 0.00832263f, 0.13430405f, 0.00602906f, 0.04116434f, 0.05754532f, -0.07995779f, 0.11091458f, 0.11870860f, 0.12802359f, -0.04924554f, -0.15839326f, -0.03661998f, 0.03012112f, -0.09083004f, -0.08213054f, 0.04292574f, 0.07137509f, 0.13682218f, -0.03958411f, 0.00001928f, 0.08540511f, 0.02711266f, 0.26896751f, -0.04314953f, 0.06745106f, -0.01483868f, -0.08466244f, 0.08629310f, 0.09419521f, 0.06593414f, 0.00893814f, -0.04508838f, -0.00134081f, -0.08714151f, -0.04123559f, -0.03006541f, 0.01302154f, -0.07033385f, 0.08613099f, 0.22840647f, 0.03844291f, -0.04192144f, 0.07784003f, -0.06274353f, 0.13777116f, -0.03499877f, -0.08312124f, -0.16801934f, -0.01965986f, 0.08049721f, -0.05888914f, 0.06175845f, 0.25815856f, 0.02286104f, 0.09280821f, -0.08857349f, -0.01565456f, 0.05407188f, 0.00366087f, -0.08959217f, 0.06547384f, -0.17229849f, 0.13375431f, -0.07516666f, -0.14536016f, 0.08633310f, 0.01545820f, 0.03383012f, -0.01377954f, 0.08143101f, -0.03434365f, -0.07627603f, -0.06827035f, 0.12978366f, 0.01285941f, 0.09391937f, -0.02120034f, -0.02535382f, -0.12076204f, -0.03576799f, -0.02328494f, 0.00394810f, 0.05741024f, -0.11270649f, -0.02230492f, 0.05090589f, 0.08385433f, 0.07356717f, -0.02284406f, -0.03972413f, 0.09585038f, -0.05430154f, 0.03410380f, -0.02506375f, -0.02830132f, -0.10061464f, -0.08695629f, 0.25824001f, 0.08200106f, 0.03788950f, -0.01719205f, 0.02511759f, -0.05564990f, 0.06189935f, -0.03378887f, 0.08677354f, 0.08889521f, 0.02318542f, -0.07788341f, -0.03454608f, -0.00971196f, 0.08937750f, -0.01417613f, -0.12697712f, 0.00741611f, -0.05462792f, -0.00863265f, 0.01998055f, 0.12324259f, 0.14369996f, -0.10490583f, -0.07723067f, 0.01752183f, -0.02461688f, -0.14660299f, -0.04937562f, 0.08234101f, -0.05704918f, -0.07209526f, -0.04395884f, -0.03380572f, 0.01606322f, 0.04498434f, 0.03652811f, 0.00830681f, -0.04983807f, -0.01103229f, 0.03026219f, -0.10241757f, -0.02970036f, -0.21615830f, 0.01865708f, -0.02718743f, -0.01004159f, -0.00049933f, -0.09346052f, 0.06330546f, -0.18109971f, 0.02119874f, 0.13026750f, 0.07263391f, -0.10784250f, -0.02714616f, -0.04400543f, 0.07283009f, -0.08059347f, -0.05919612f, 0.03932324f, 0.10032969f, 0.04977943f, -0.06837141f, -0.19828162f, -0.07284098f, 0.16025297f, -0.10492461f, -0.07939171f, -0.06171827f, 0.02377884f, -0.07066793f, -0.09579432f, 0.12291960f, -0.09001302f, -0.00243537f, -0.03170943f, -0.11194272f, -0.02572754f, -0.04179713f, -0.09634621f, -0.18767057f, 0.10213289f, -0.10780369f, -0.19913512f, 0.22423042f, 0.07312113f, 0.04861401f, -0.00896771f, 0.05081866f, 0.05653421f, 0.01496772f, 0.07130448f, -0.10366101f, 0.01955225f, -0.07952780f, 0.11970552f, -0.09071140f, 0.00265171f, 0.00451739f, -0.12847453f, -0.00229449f, -0.02702867f, -0.12809716f, 0.11742032f, 0.00739079f, -0.00034243f, -0.01120798f, -0.01405257f, -0.01353843f},
    {-0.08583700f, 0.14426598f, 0.12304500f, 0.02806302f, 0.02852117f, -0.03289285f, 0.05146212f, -0.00151409f, -0.17327967f, -0.03279106f, 0.04629975f, 0.06382815f, 0.10856736f, -0.08738033f, -0.00116996f, 0.01955438f, -0.07331730f, 0.13820109f, 0.10570325f, 0.19537351f, 0.05790665f, -0.07486490f, -0.04608729f, -0.08187376f, 0.09850069f, 0.13102730f, -0.14939924f, 0.13468459f, 0.00873429f, -0.10133124f, -0.13044396f, -0.04846257f, -0.01040539f, -0.07859814f, 0.02797642f, 0.05259029f, -0.06743626f, -0.07031973f, 0.16096279f, -0.06509695f, 0.17084023f, -0.07927137f, -0.16405258f, -0.00431844f, -0.07959806f, 0.11595397f, -0.13693950f, 0.02856664f, 0.06397573f, 0.05946790f, -0.30696788f, -0.12267145f, -0.07287911f, 0.03880047f, 0.04634946f, 0.02914259f, 0.03865694f, -0.06701546f, -0.02717208f, 0.11108989f, 0.08838297f, 0.10657914f, 0.05282284f, 0.08247068f, -0.09044812f, -0.00053666f, 0.11517388f, 0.04395721f, 0.05661967f, -0.13685668f, -0.00127718f, 0.15230477f, -0.03976300f, -0.15635000f, 0.03319252f, -0.05097357f, 0.03628382f, -0.23476811f, -0.05231794f, 0.04755585f, 0.04602928f, 0.05377505f, -0.12805472f, 0.06251419f, 0.02464684f, -0.05287602f, 0.02053294f, -0.07508740f, 0.03574601f, -0.05825324f, 0.02769225f, 0.15384373f, -0.04843846f, -0.00803099f, 0.09205563f, -0.01847046f, -0.13932823f, -0.08423454f, -0.15195374f, -0.08645722f, -0.04811396f, -0.00720289f, -0.00495876f, 0.04394426f, -0.03414354f, -0.00807445f, 0.02640288f, -0.11191271f, 0.06584264f, 0.02363038f, -0.02408560f, 0.06685434f, 0.00749557f, 0.12248939f, 0.09647051f, 0.07247663f, -0.11481497f, 0.14113954f, 0.17962331f, -0.08185098f, 0.02983297f, -0.11110307f, 0.01070612f, 0.01269544f, -0.00375798f, 0.00319348f, -0.06735270f, -0.00105452f, -0.05410571f, 0.09455424f, 0.08116676f, -0.14522159f, 0.03263206f, -0.02234828f, -0.08538593f, 0.17485045f, 0.11888184f, -0.20682418f, 0.00499465f, 0.05565443f, 0.09712627f, 0.01788823f, 0.05410499f, -0.03599187f, -0.03887760f, -0.14403138f, 0.07898476f, 0.03034475f, 0.01708219f, -0.09028675f, -0.02207935f, -0.02525822f, 0.07267027f, -0.07173084f, -0.03521229f, -0.08655068f, 0.08735533f, 0.00604115f, 0.03559958f, -0.02341494f, -0.13929591f, -0.05531489f, -0.04942490f, 0.04730616f, -0.02707661f, 0.01175364f, 0.04274954f, -0.01563082f, -0.04106337f, 0.00107695f, 0.06506570f, -0.00829165f, 0.09476333f, -0.14916520f, 0.10621368f, 0.08166828f, 0.05753847f, 0.04181013f, -0.04184337f, 0.03913290f, -0.03568017f, 0.05462063f, 0.01153236f, -0.04341184f, 0.01799404f, 0.09536915f, -0.07255183f, -0.16947594f, -0.06993428f, 0.01850083f, -0.20554362f, 0.06608496f, 0.14968431f, 0.05350436f, 0.05445381f, 0.05924045f, 0.13632268f, -0.00578060f, -0.16608918f, -0.01422913f, 0.08239333f, -0.06827416f, -0.11892406f, -0.09102812f, 0.00644065f, 0.10870435f, 0.04462657f, 0.06996603f, 0.01064886f, 0.04474070f, -0.06605899f, -0.18897167f, -0.10982988f, -0.00893310f, -0.07829127f, -0.03322305f, -0.04562986f, -0.02583070f, 0.03081131f, 0.12875061f, -0.02286308f, -0.14275475f, -0.06459356f, 0.00876006f, -0.05083925f, 0.02984498f, 0.11958478f, 0.00131679f, -0.04067005f, 0.04149929f, 0.02400442f, 0.13349611f, -0.00234176f, 0.01381635f, 0.04246377f, 0.13731414f, 0.10422414f, -0.10576463f, 0.18840012f, -0.10657769f, 0.09234876f, -0.02664503f, -0.05754765f, -0.17524214f, -0.00020078f, -0.05795654f, 0.05797662f, -0.04156123f, 0.09211190f, -0.09281229f, 0.11041065f, -0.21685788f, 0.12246434f, 0.07920750f, 0.06803075f, -0.05236711f},
    {0.00765794f, -0.09881585f, 0.09674003f, 0.08234362f, -0.09996811f, 0.06518786f, 0.03394561f, 0.06304727f, 0.01074069f, -0.12821329f, -0.03772744f, -0.09105231f, -0.02249161f, 0.16943088f, 0.03330628f, 0.01256336f, -0.07302760f, 0.16512841f, -0.05449207f, 0.08766207f, 0.08890354f, -0.32234147f, 0.05533503f, -0.03165380f, -0.07599386f, -0.07780565f, 0.07418723f, 0.01712120f, 0.09156694f, -0.09183156f, 0.02085894f, -0.03636079f, -0.01548059f, -0.01370796f, 0.01633103f, 0.05244640f, -0.04343379f, -0.01698634f, 0.01608934f, 0.05903093f, -0.01767707f, -0.20928121f, 0.08003809f, 0.03796152f, 0.07237551f, 0.04688306f, 0.09928649f, -0.00124809f, -0.03913234f, -0.07969717f, 0.09623932f, -0.00976766f, 0.06321149f, -0.07506356f, 0.05949819f, -0.06667770f, 0.06733647f, -0.05684321f, 0.02919671f, -0.06394213f, 0.04975751f, 0.02232525f, 0.00990363f, -0.01113248f, -0.01125271f, -0.08910121f, 0.17923820f, 0.08003818f, -0.02867427f, 0.09607280f, -0.12674744f, -0.13290307f, -0.09964731f, -0.06695151f, -0.06574539f, 0.01624877f, -0.19129525f, -0.17267370f, -0.19038196f, 0.16202529f, -0.03522851f, 0.09871319f, 0.08865193f, -0.03603862f, 0.07445967f, 0.07299358f, -0.09727290f, 0.05485357f, 0.02513705f, 0.01596124f, 0.11395580f, -0.18588728f, -0.08356324f, -0.04912447f, -0.06110073f, -0.07516418f, 0.05830227f, -0.06739154f, -0.11673021f, 0.10614943f, -0.04634503f, 0.16813305f, 0.03454720f, 0.01663225f, -0.01895360f, 0.03417909f, -0.17892706f, 0.09673095f, -0.00709965f, -0.05585097f, 0.02704858f, 0.05262580f, -0.17830053f, 0.16274825f, -0.02768489f, 0.08489893f, 0.08946335f, -0.02541724f, -0.11475635f, -0.18091622f, -0.02145975f, 0.06904162f, 0.04925422f, 0.05952609f, -0.16028379f, -0.19353272f, -0.01753207f, 0.11719503f, -0.04411726f, 0.13025388f, -0.17221768f, -0.00124055f, 0.07246041f, 0.03059384f, -0.00453618f, 0.08129939f, -0.07064325f, -0.01133936f, 0.06446145f, -0.01345622f, -0.17445430f, 0.00446489f, 0.09396105f, -0.01057575f, 0.01854947f, 0.05478984f, 0.12310044f, -0.04229558f, 0.05487759f, -0.01089550f, -0.12184166f, 0.00167419f, -0.00851337f, -0.06307596f, 0.08767523f, -0.01870956f, 0.03580022f, 0.02220803f, 0.04685730f, -0.14093716f, 0.05493729f, 0.10834602f, -0.05962051f, 0.03707302f, -0.17356867f, 0.07187056f, -0.02202684f, 0.04694261f, 0.05562181f, -0.09302610f, 0.01326338f, -0.07631230f, -0.02293672f, -0.13266066f, -0.04189158f, -0.19136217f, 0.12672956f, -0.01637854f, 0.08114449f, -0.11006052f, 0.07948289f, 0.01731181f, -0.10279495f, 0.11646960f, 0.00771373f, -0.03961755f, -0.03661438f, 0.00700356f, 0.02305870f, -0.00949843f, -0.01829722f, -0.16765486f, 0.02288163f, -0.09856546f, -0.11096273f, 0.05404670f, 0.06431053f, 0.12469160f, 0.15625694f, 0.10425025f, -0.00189225f, 0.10360774f, -0.04503234f, -0.08616321f, -0.01122545f, -0.10733769f, 0.06954114f, -0.03958889f, 0.01726974f, 0.09274010f, 0.08998593f, -0.16194820f, -0.01327138f, -0.06728495f, 0.09809634f, -0.12604195f, 0.16566482f, 0.10203131f, -0.12363128f, 0.03171812f, 0.06863502f, 0.05956099f, -0.14281310f, 0.01364502f, -0.00863708f, 0.04626684f, -0.05530106f, 0.07107960f, -0.01919102f, 0.02942684f, 0.11354747f, 0.03179004f, 0.02380408f, -0.16228282f, 0.02256398f, -0.05081601f, 0.02617625f, -0.09665424f, -0.04295219f, -0.23671660f, -0.03184763f, -0.08257626f, 0.00168556f, -0.14756657f, -0.03758562f, -0.03739200f, 0.02998681f, 0.08681720f, -0.16257171f, -0.00574840f, -0.03682821f, -0.10307801f, 0.00657629f, -0.01885353f, -0.05556395f, 0.08473314f},
    {-0.05427665f, -0.06871095f, -0.10519701f, 0.01881110f, -0.08750189f, 0.06165015f, 0.01577529f, 0.03487023f, -0.10446191f, -0.04308857f, -0.05603113f, 0.05029931f, -0.05659452f, 0.21090548f, 0.04728262f, -0.02232922f, 0.16846980f, 0.00430800f, 0.05146652f, -0.08335780f, -0.11108368f, 0.13934685f, -0.02734385f, -0.03519468f, -0.04657316f, -0.05870197f, -0.03347209f, -0.07267873f, -0.04057705f, -0.08376391f, 0.03844419f, -0.09043708f, 0.06320732f, -0.12368059f, -0.10956586f, 0.10262974f, -0.08476428f, -0.04785991f, -0.12249754f, 0.05064142f, -0.04620745f, -0.03469983f, 0.04382687f, -0.22369881f, 0.01179936f, -0.12804128f, -0.07057438f, -0.08703913f, -0.01890150f, -0.05953068f, 0.03845554f, 0.00566745f, 0.12145733f, -0.05832950f, 0.14897710f, -0.15366347f, -0.02908842f, -0.13673636f, 0.13484956f, 0.02544319f, 0.10258518f, 0.05462856f, -0.05508416f, 0.04585778f, 0.08425598f, -0.00955427f, 0.19412200f, 0.09406853f, -0.07396962f, -0.02802147f, 0.03830738f, -0.00273267f, -0.11288754f, -0.00273209f, 0.11708926f, -0.25977033f, 0.04706440f, -0.07942253f, -0.07541420f, 0.00598676f, -0.13749613f, -0.08735856f, 0.06538015f, -0.02773349f, 0.10723879f, 0.13261652f, 0.07200474f, 0.03016890f, -0.00350673f, 0.07342977f, -0.01976490f, 0.09879319f, 0.02465332f, -0.14131889f, -0.09212415f, -0.04816075f, -0.09371399f, -0.05659188f, 0.11601344f, 0.10771880f, -0.07582428f, 0.04229189f, -0.04335683f, 0.09479046f, 0.03726967f, 0.01498399f, 0.04252332f, -0.02865685f, -0.19550371f, 0.00912608f, 0.18148890f, 0.04835504f, 0.00960357f, 0.10255259f, 0.05555990f, -0.00198330f, -0.08398736f, 0.12883532f, 0.09538695f, 0.00279354f, 0.05141889f, -0.08005210f, -0.00757921f, -0.17518342f, 0.05359250f, -0.02029468f, 0.04911263f, -0.05433515f, 0.14625849f, 0.00794078f, 0.01351092f, -0.18194066f, 0.01504201f, 0.07934409f, 0.01554927f, -0.04167957f, 0.02158225f, -0.01708821f, -0.04629518f, 0.06064089f, -0.12751320f, 0.19628544f, 0.16293970f, 0.19084761f, 0.11028512f, 0.02212088f, -0.11729802f, 0.04126836f, 0.01900005f, 0.02650269f, 0.07231235f, -0.07960001f, 0.02245192f, -0.06692763f, 0.02765031f, 0.00644162f, -0.10338581f, 0.11122297f, 0.16445509f, -0.05510338f, -0.06183383f, 0.07227279f, -0.00937738f, -0.13487095f, 0.09377108f, 0.11981785f, -0.07237447f, 0.07821035f, 0.02481237f, -0.09316055f, 0.05147776f, -0.11363765f, 0.05809414f, 0.23170489f, -0.00552608f, 0.20017721f, -0.03112921f, -0.04318013f, 0.07640684f, -0.08401579f, -0.08887558f, 0.02392967f, 0.20026498f, 0.09094899f, -0.24819687f, 0.03905545f, 0.02763331f, -0.08283281f, -0.03980219f, 0.03446669f, -0.09347622f, 0.08385976f, -0.03767189f, -0.06253348f, 0.01974067f, -0.00873899f, -0.07236642f, 0.00097736f, 0.08412761f, -0.12197995f, 0.14684476f, 0.06357370f, 0.05922040f, -0.03164623f, -0.10823816f, -0.09333133f, 0.23054717f, 0.06730101f, 0.07123914f, -0.03141693f, -0.00085976f, 0.12482283f, 0.04846611f, -0.03344902f, 0.03137089f, 0.06179020f, -0.09719509f, 0.20599304f, 0.06298058f, -0.04459965f, -0.00614884f, 0.02508700f, -0.10530817f, 0.07331753f, -0.05528817f, -0.16676222f, -0.11200792f, 0.08528281f, 0.06748596f, 0.05317229f, -0.17811614f, -0.10048072f, -0.05328537f, -0.06467023f, -0.03191246f, 0.13357298f, 0.00694289f, -0.05222798f, -0.00937230f, 0.14133051f, 0.26382527f, -0.07448607f, 0.10208725f, -0.15262577f, -0.04251983f, -0.00016286f, -0.05644967f, -0.03149084f, 0.03105732f, 0.00930989f, 0.03652414f, 0.03216332f, -0.01782508f, -0.03388327f, 0.03302731f, -0.06533124f},
